-4.789367982129180690e-01,-6.377815653816161223e-01,0.000000000000000000e+00,-3.650615103326563804e-01,-9.206007887480964769e-01,1.591467776704218531e-02,0.000000000000000000e+00,-3.650615103326563804e-01,-9.206007887480964769e-01,-1.591467776704218531e-02,0.000000000000000000e+00,-3.650615103326563804e-01,-6.408258302162634923e-01,-4.470519170951242627e-01,0.000000000000000000e+00,-2.711603875160608079e-01,-7.171561253748942599e-01,-5.118588471554725849e-01,0.000000000000000000e+00,-3.030242576206992888e-01,-6.963224710709853271e-01,-4.605837850613770379e-01,0.000000000000000000e+00,-2.545926313162513166e-01,-9.206007887480964769e-01,-6.377815653816161223e-01,0.000000000000000000e+00,-1.308151184738724770e-01,-9.206007887480964769e-01,-6.377815653816161223e-01,0.000000000000000000e+00,-1.006426895465074162e-01,-9.206007887480964769e-01,-6.377815653816161223e-01,0.000000000000000000e+00,-1.336037023122764733e-01,-8.585629025859494723e-01,-5.814336995895101889e-01,0.000000000000000000e+00,-3.398319675989396327e-01,-8.558659976297757765e-01,-5.996422023889653730e-01,0.000000000000000000e+00,-3.172120248684689447e-01,-8.607996555811172623e-01,-5.872574101604408625e-01,0.000000000000000000e+00,-3.298658643383410305e-01,-9.206007887480964769e-01,-6.377815653816161223e-01,0.000000000000000000e+00,-3.650615103326563804e-01,-9.206007887480964769e-01,-6.377815653816161223e-01,0.000000000000000000e+00,-3.650615103326563804e-01,-9.206007887480964769e-01,-6.377815653816161223e-01,0.000000000000000000e+00,-3.650615103326563804e-01,-9.206007887480964769e-01,-6.377815653816161223e-01,0.000000000000000000e+00,-3.650615103326563804e-01,-9.206007887480964769e-01,-6.377815653816161223e-01,0.000000000000000000e+00,-3.650615103326563804e-01,-9.206007887480964769e-01,-6.377815653816161223e-01,0.000000000000000000e+00,-3.650615103326563804e-01
-4.789367982129180690e-01,-6.381437838162344889e-01,0.000000000000000000e+00,-3.650615103326563804e-01,-9.206007887480964769e-01,1.489876308927514346e-02,0.000000000000000000e+00,-3.650615103326563804e-01,-9.206007887480964769e-01,-1.489876308927514346e-02,0.000000000000000000e+00,-3.650615103326563804e-01,-6.408258302162634923e-01,-4.476048651780291654e-01,0.000000000000000000e+00,-2.711603875160608079e-01,-7.171561253748942599e-01,-5.103469883083171510e-01,0.000000000000000000e+00,-3.030242576206992888e-01,-6.963224710709853271e-01,-4.611232012763156751e-01,0.000000000000000000e+00,-2.545926313162513166e-01,-9.206007887480964769e-01,-6.381437838162344889e-01,0.000000000000000000e+00,-1.308151184738724770e-01,-9.206007887480964769e-01,-6.381437838162344889e-01,0.000000000000000000e+00,-1.006426895465074162e-01,-9.206007887480964769e-01,-6.381437838162344889e-01,0.000000000000000000e+00,-1.336037023122764733e-01,-8.585629025859494723e-01,-5.818522658899206723e-01,0.000000000000000000e+00,-3.398319675989396327e-01,-8.558659976297757765e-01,-6.000425601865764236e-01,0.000000000000000000e+00,-3.172120248684689447e-01,-8.607996555811172623e-01,-5.876701527502804501e-01,0.000000000000000000e+00,-3.298658643383410305e-01,-9.206007887480964769e-01,-6.381437838162344889e-01,0.000000000000000000e+00,-3.650615103326563804e-01,-9.206007887480964769e-01,-6.381437838162344889e-01,0.000000000000000000e+00,-3.650615103326563804e-01,-9.206007887480964769e-01,-6.381437838162344889e-01,0.000000000000000000e+00,-3.650615103326563804e-01,-9.206007887480964769e-01,-6.381437838162344889e-01,0.000000000000000000e+00,-3.650615103326563804e-01,-9.206007887480964769e-01,-6.381437838162344889e-01,0.000000000000000000e+00,-3.650615103326563804e-01,-9.206007887480964769e-01,-6.381437838162344889e-01,0.000000000000000000e+00,-3.650615103326563804e-01
-4.774578614147051425e-01,-6.381437838162344889e-01,0.000000000000000000e+00,-3.650615103326563804e-01,-9.206801879593483617e-01,1.489876308927514346e-02,0.000000000000000000e+00,-3.650615103326563804e-01,-9.206801879593483617e-01,-1.489876308927514346e-02,0.000000000000000000e+00,-3.650615103326563804e-01,-6.411850043860471970e-01,-4.476048651780291654e-01,0.000000000000000000e+00,-2.711603875160608079e-01,-7.174389692495193316e-01,-5.103469883083171510e-01,0.000000000000000000e+00,-3.030242576206992888e-01,-6.966261485999143410e-01,-4.611232012763156751e-01,0.000000000000000000e+00,-2.545926313162513166e-01,-9.206801879593483617e-01,-6.381437838162344889e-01,0.000000000000000000e+00,-1.308151184738724770e-01,-9.206801879593483617e-01,-6.381437838162344889e-01,0.000000000000000000e+00,-1.006426895465074162e-01,-9.206801879593483617e-01,-6.381437838162344889e-01,0.000000000000000000e+00,-1.336037023122764733e-01,-8.587043396833635711e-01,-5.818522658899206723e-01,0.000000000000000000e+00,-3.398319675989396327e-01,-8.560101316321460097e-01,-6.000425601865764236e-01,0.000000000000000000e+00,-3.172120248684689447e-01,-8.609388559255360951e-01,-5.876701527502804501e-01,0.000000000000000000e+00,-3.298658643383410305e-01,-9.206801879593483617e-01,-6.381437838162344889e-01,0.000000000000000000e+00,-3.650615103326563804e-01,-9.206801879593483617e-01,-6.381437838162344889e-01,0.000000000000000000e+00,-3.650615103326563804e-01,-9.206801879593483617e-01,-6.381437838162344889e-01,0.000000000000000000e+00,-3.650615103326563804e-01,-9.206801879593483617e-01,-6.381437838162344889e-01,0.000000000000000000e+00,-3.650615103326563804e-01,-9.206801879593483617e-01,-6.381437838162344889e-01,0.000000000000000000e+00,-3.650615103326563804e-01,-9.206801879593483617e-01,-6.381437838162344889e-01,0.000000000000000000e+00,-3.650615103326563804e-01
-4.779804035532904116e-01,-6.381437838162344889e-01,0.000000000000000000e+00,-3.650615103326563804e-01,-9.207595077713890408e-01,1.489876308927514346e-02,0.000000000000000000e+00,-3.650615103326563804e-01,-9.207595077713890408e-01,-1.489876308927514346e-02,0.000000000000000000e+00,-3.650615103326563804e-01,-6.415438193816611623e-01,-4.476048651780291654e-01,0.000000000000000000e+00,-2.711603875160608079e-01,-7.177215302802698593e-01,-5.103469883083171510e-01,0.000000000000000000e+00,-3.030242576206992888e-01,-6.969295224513144538e-01,-4.611232012763156751e-01,0.000000000000000000e+00,-2.545926313162513166e-01,-9.207595077713890408e-01,-6.381437838162344889e-01,0.000000000000000000e+00,-1.308151184738724770e-01,-9.207595077713890408e-01,-6.381437838162344889e-01,0.000000000000000000e+00,-1.006426895465074162e-01,-9.207595077713890408e-01,-6.381437838162344889e-01,0.000000000000000000e+00,-1.336037023122764733e-01,-8.588456353436801916e-01,-5.818522658899206723e-01,0.000000000000000000e+00,-3.398319675989396327e-01,-8.561541215005138428e-01,-6.000425601865764236e-01,0.000000000000000000e+00,-3.172120248684689447e-01,-8.610779170696105655e-01,-5.876701527502804501e-01,0.000000000000000000e+00,-3.298658643383410305e-01,-9.207595077713890408e-01,-6.381437838162344889e-01,0.000000000000000000e+00,-3.650615103326563804e-01,-9.207595077713890408e-01,-6.381437838162344889e-01,0.000000000000000000e+00,-3.650615103326563804e-01,-9.207595077713890408e-01,-6.381437838162344889e-01,0.000000000000000000e+00,-3.650615103326563804e-01,-9.207595077713890408e-01,-6.381437838162344889e-01,0.000000000000000000e+00,-3.650615103326563804e-01,-9.207595077713890408e-01,-6.381437838162344889e-01,0.000000000000000000e+00,-3.650615103326563804e-01,-9.207595077713890408e-01,-6.381437838162344889e-01,0.000000000000000000e+00,-3.650615103326563804e-01
-4.785024231497371217e-01,-6.381437838162344889e-01,0.000000000000000000e+00,-3.650615103326563804e-01,-9.208387482636176680e-01,1.489876308927514346e-02,0.000000000000000000e+00,-3.650615103326563804e-01,-9.208387482636176680e-01,-1.489876308927514346e-02,0.000000000000000000e+00,-3.650615103326563804e-01,-6.419022755622795229e-01,-4.476048651780291654e-01,0.000000000000000000e+00,-2.711603875160608079e-01,-7.180038087499895916e-01,-5.103469883083171510e-01,0.000000000000000000e+00,-3.030242576206992888e-01,-6.972325929288631929e-01,-4.611232012763156751e-01,0.000000000000000000e+00,-2.545926313162513166e-01,-9.208387482636176680e-01,-6.381437838162344889e-01,0.000000000000000000e+00,-1.308151184738724770e-01,-9.208387482636176680e-01,-6.381437838162344889e-01,0.000000000000000000e+00,-1.006426895465074162e-01,-9.208387482636176680e-01,-6.381437838162344889e-01,0.000000000000000000e+00,-1.336037023122764733e-01,-8.589867897083365289e-01,-5.818522658899206723e-01,0.000000000000000000e+00,-3.398319675989396327e-01,-8.562979673790133139e-01,-6.000425601865764236e-01,0.000000000000000000e+00,-3.172120248684689447e-01,-8.612168391525409916e-01,-5.876701527502804501e-01,0.000000000000000000e+00,-3.298658643383410305e-01,-9.208387482636176680e-01,-6.381437838162344889e-01,0.000000000000000000e+00,-3.650615103326563804e-01,-9.208387482636176680e-01,-6.381437838162344889e-01,0.000000000000000000e+00,-3.650615103326563804e-01,-9.208387482636176680e-01,-6.381437838162344889e-01,0.000000000000000000e+00,-3.650615103326563804e-01,-9.208387482636176680e-01,-6.381437838162344889e-01,0.000000000000000000e+00,-3.650615103326563804e-01,-9.208387482636176680e-01,-6.381437838162344889e-01,0.000000000000000000e+00,-3.650615103326563804e-01,-9.208387482636176680e-01,-6.381437838162344889e-01,0.000000000000000000e+00,-3.650615103326563804e-01
-4.785024231497371217e-01,-6.381437838162344889e-01,0.000000000000000000e+00,-3.656964488223237164e-01,-9.208387482636176680e-01,1.489876308927514346e-02,0.000000000000000000e+00,-3.656964488223237164e-01,-9.208387482636176680e-01,-1.489876308927514346e-02,0.000000000000000000e+00,-3.656964488223237164e-01,-6.419022755622795229e-01,-4.476048651780291654e-01,0.000000000000000000e+00,-2.698892271285447397e-01,-7.180038087499895916e-01,-5.103469883083171510e-01,0.000000000000000000e+00,-3.037212333630786021e-01,-6.972325929288631929e-01,-4.611232012763156751e-01,0.000000000000000000e+00,-2.553380386849350425e-01,-9.208387482636176680e-01,-6.381437838162344889e-01,0.000000000000000000e+00,-1.316843033553986020e-01,-9.208387482636176680e-01,-6.381437838162344889e-01,0.000000000000000000e+00,-1.015420468569609019e-01,-9.208387482636176680e-01,-6.381437838162344889e-01,0.000000000000000000e+00,-1.324700986099641986e-01,-8.589867897083365289e-01,-5.818522658899206723e-01,0.000000000000000000e+00,-3.404921356313406755e-01,-8.562979673790133139e-01,-6.000425601865764236e-01,0.000000000000000000e+00,-3.178948128436004938e-01,-8.612168391525409916e-01,-5.876701527502804501e-01,0.000000000000000000e+00,-3.305359984740026680e-01,-9.208387482636176680e-01,-6.381437838162344889e-01,0.000000000000000000e+00,-3.656964488223237164e-01,-9.208387482636176680e-01,-6.381437838162344889e-01,0.000000000000000000e+00,-3.656964488223237164e-01,-9.208387482636176680e-01,-6.381437838162344889e-01,0.000000000000000000e+00,-3.656964488223237164e-01,-9.208387482636176680e-01,-6.381437838162344889e-01,0.000000000000000000e+00,-3.656964488223237164e-01,-9.208387482636176680e-01,-6.381437838162344889e-01,0.000000000000000000e+00,-3.656964488223237164e-01,-9.208387482636176680e-01,-6.381437838162344889e-01,0.000000000000000000e+00,-3.656964488223237164e-01
-4.790239207265873933e-01,-6.381437838162344889e-01,0.000000000000000000e+00,-3.656964488223237164e-01,-9.209179095153540162e-01,1.489876308927514346e-02,0.000000000000000000e+00,-3.656964488223237164e-01,-9.209179095153540162e-01,-1.489876308927514346e-02,0.000000000000000000e+00,-3.656964488223237164e-01,-6.402603732867172548e-01,-4.476048651780291654e-01,0.000000000000000000e+00,-2.698892271285447397e-01,-7.182858049412396140e-01,-5.103469883083171510e-01,0.000000000000000000e+00,-3.037212333630786021e-01,-6.975353603359343291e-01,-4.611232012763156751e-01,0.000000000000000000e+00,-2.553380386849350425e-01,-9.209179095153540162e-01,-6.381437838162344889e-01,0.000000000000000000e+00,-1.316843033553986020e-01,-9.209179095153540162e-01,-6.381437838162344889e-01,0.000000000000000000e+00,-1.015420468569609019e-01,-9.209179095153540162e-01,-6.381437838162344889e-01,0.000000000000000000e+00,-1.324700986099641986e-01,-8.591278029186282250e-01,-5.818522658899206723e-01,0.000000000000000000e+00,-3.404921356313406755e-01,-8.564416694116343542e-01,-6.000425601865764236e-01,0.000000000000000000e+00,-3.178948128436004938e-01,-8.613556223133884693e-01,-5.876701527502804501e-01,0.000000000000000000e+00,-3.305359984740026680e-01,-9.209179095153540162e-01,-6.381437838162344889e-01,0.000000000000000000e+00,-3.656964488223237164e-01,-9.209179095153540162e-01,-6.381437838162344889e-01,0.000000000000000000e+00,-3.656964488223237164e-01,-9.209179095153540162e-01,-6.381437838162344889e-01,0.000000000000000000e+00,-3.656964488223237164e-01,-9.209179095153540162e-01,-6.381437838162344889e-01,0.000000000000000000e+00,-3.656964488223237164e-01,-9.209179095153540162e-01,-6.381437838162344889e-01,0.000000000000000000e+00,-3.656964488223237164e-01,-9.209179095153540162e-01,-6.381437838162344889e-01,0.000000000000000000e+00,-3.656964488223237164e-01
-4.795448968058608208e-01,-6.381437838162344889e-01,0.000000000000000000e+00,-3.656964488223237164e-01,-9.209969916058386996e-01,1.489876308927514346e-02,0.000000000000000000e+00,-3.656964488223237164e-01,-9.209969916058386996e-01,-1.489876308927514346e-02,0.000000000000000000e+00,-3.656964488223237164e-01,-6.406201129134305727e-01,-4.476048651780291654e-01,0.000000000000000000e+00,-2.698892271285447397e-01,-7.185675191362983494e-01,-5.103469883083171510e-01,0.000000000000000000e+00,-3.037212333630786021e-01,-6.978378249755984308e-01,-4.611232012763156751e-01,0.000000000000000000e+00,-2.553380386849350425e-01,-9.209969916058386996e-01,-6.381437838162344889e-01,0.000000000000000000e+00,-1.316843033553986020e-01,-9.209969916058386996e-01,-6.381437838162344889e-01,0.000000000000000000e+00,-1.015420468569609019e-01,-9.209969916058386996e-01,-6.381437838162344889e-01,0.000000000000000000e+00,-1.324700986099641986e-01,-8.592686751157095904e-01,-5.818522658899206723e-01,0.000000000000000000e+00,-3.404921356313406755e-01,-8.565852277422226768e-01,-6.000425601865764236e-01,0.000000000000000000e+00,-3.178948128436004938e-01,-8.614942666910750946e-01,-5.876701527502804501e-01,0.000000000000000000e+00,-3.305359984740026680e-01,-9.209969916058386996e-01,-6.381437838162344889e-01,0.000000000000000000e+00,-3.656964488223237164e-01,-9.209969916058386996e-01,-6.381437838162344889e-01,0.000000000000000000e+00,-3.656964488223237164e-01,-9.209969916058386996e-01,-6.381437838162344889e-01,0.000000000000000000e+00,-3.656964488223237164e-01,-9.209969916058386996e-01,-6.381437838162344889e-01,0.000000000000000000e+00,-3.656964488223237164e-01,-9.209969916058386996e-01,-6.381437838162344889e-01,0.000000000000000000e+00,-3.656964488223237164e-01,-9.209969916058386996e-01,-6.381437838162344889e-01,0.000000000000000000e+00,-3.656964488223237164e-01
-4.800653519090549715e-01,-6.381437838162344889e-01,0.000000000000000000e+00,-3.656964488223237164e-01,-9.210759946142328403e-01,1.489876308927514346e-02,0.000000000000000000e+00,-3.656964488223237164e-01,-9.210759946142328403e-01,-1.489876308927514346e-02,0.000000000000000000e+00,-3.656964488223237164e-01,-6.409794928005171366e-01,-4.476048651780291654e-01,0.000000000000000000e+00,-2.698892271285447397e-01,-7.188489516171620020e-01,-5.103469883083171510e-01,0.000000000000000000e+00,-3.037212333630786021e-01,-6.981399871506228649e-01,-4.611232012763156751e-01,0.000000000000000000e+00,-2.553380386849350425e-01,-9.210759946142328403e-01,-6.381437838162344889e-01,0.000000000000000000e+00,-1.316843033553986020e-01,-9.210759946142328403e-01,-6.381437838162344889e-01,0.000000000000000000e+00,-1.015420468569609019e-01,-9.210759946142328403e-01,-6.381437838162344889e-01,0.000000000000000000e+00,-1.324700986099641986e-01,-8.594094064405938260e-01,-5.818522658899206723e-01,0.000000000000000000e+00,-3.404921356313406755e-01,-8.567286425144804429e-01,-6.000425601865764236e-01,0.000000000000000000e+00,-3.178948128436004938e-01,-8.596327724243840729e-01,-5.876701527502804501e-01,0.000000000000000000e+00,-3.305359984740026680e-01,-9.210759946142328403e-01,-6.381437838162344889e-01,0.000000000000000000e+00,-3.656964488223237164e-01,-9.210759946142328403e-01,-6.381437838162344889e-01,0.000000000000000000e+00,-3.656964488223237164e-01,-9.210759946142328403e-01,-6.381437838162344889e-01,0.000000000000000000e+00,-3.656964488223237164e-01,-9.210759946142328403e-01,-6.381437838162344889e-01,0.000000000000000000e+00,-3.656964488223237164e-01,-9.210759946142328403e-01,-6.381437838162344889e-01,0.000000000000000000e+00,-3.656964488223237164e-01,-9.210759946142328403e-01,-6.381437838162344889e-01,0.000000000000000000e+00,-3.656964488223237164e-01
-4.805852865571459409e-01,-6.381437838162344889e-01,0.000000000000000000e+00,-3.656964488223237164e-01,-9.211549186196186234e-01,1.489876308927514346e-02,0.000000000000000000e+00,-3.656964488223237164e-01,-9.211549186196186234e-01,-1.489876308927514346e-02,0.000000000000000000e+00,-3.656964488223237164e-01,-6.413385133077166289e-01,-4.476048651780291654e-01,0.000000000000000000e+00,-2.698892271285447397e-01,-7.171301026655448885e-01,-5.103469883083171510e-01,0.000000000000000000e+00,-3.037212333630786021e-01,-6.984418471634722403e-01,-4.611232012763156751e-01,0.000000000000000000e+00,-2.553380386849350425e-01,-9.211549186196186234e-01,-6.381437838162344889e-01,0.000000000000000000e+00,-1.316843033553986020e-01,-9.211549186196186234e-01,-6.381437838162344889e-01,0.000000000000000000e+00,-1.015420468569609019e-01,-9.211549186196186234e-01,-6.381437838162344889e-01,0.000000000000000000e+00,-1.324700986099641986e-01,-8.595499970341532459e-01,-5.818522658899206723e-01,0.000000000000000000e+00,-3.404921356313406755e-01,-8.568719138719659290e-01,-6.000425601865764236e-01,0.000000000000000000e+00,-3.178948128436004938e-01,-8.597731396519596725e-01,-5.876701527502804501e-01,0.000000000000000000e+00,-3.305359984740026680e-01,-9.211549186196186234e-01,-6.381437838162344889e-01,0.000000000000000000e+00,-3.656964488223237164e-01,-9.211549186196186234e-01,-6.381437838162344889e-01,0.000000000000000000e+00,-3.656964488223237164e-01,-9.211549186196186234e-01,-6.381437838162344889e-01,0.000000000000000000e+00,-3.656964488223237164e-01,-9.211549186196186234e-01,-6.381437838162344889e-01,0.000000000000000000e+00,-3.656964488223237164e-01,-9.211549186196186234e-01,-6.381437838162344889e-01,0.000000000000000000e+00,-3.656964488223237164e-01,-9.211549186196186234e-01,-6.381437838162344889e-01,0.000000000000000000e+00,-3.656964488223237164e-01
-4.811047012705887971e-01,-6.381437838162344889e-01,0.000000000000000000e+00,-3.656964488223237164e-01,-9.212337637009989644e-01,1.489876308927514346e-02,0.000000000000000000e+00,-3.656964488223237164e-01,-9.212337637009989644e-01,-1.489876308927514346e-02,0.000000000000000000e+00,-3.656964488223237164e-01,-6.396971747944089071e-01,-4.476048651780291654e-01,0.000000000000000000e+00,-2.698892271285447397e-01,-7.174129725628793919e-01,-5.103469883083171510e-01,0.000000000000000000e+00,-3.037212333630786021e-01,-6.987434053163087411e-01,-4.611232012763156751e-01,0.000000000000000000e+00,-2.553380386849350425e-01,-9.212337637009989644e-01,-6.381437838162344889e-01,0.000000000000000000e+00,-1.316843033553986020e-01,-9.212337637009989644e-01,-6.381437838162344889e-01,0.000000000000000000e+00,-1.015420468569609019e-01,-9.212337637009989644e-01,-6.381437838162344889e-01,0.000000000000000000e+00,-1.324700986099641986e-01,-8.596904470371190543e-01,-5.818522658899206723e-01,0.000000000000000000e+00,-3.404921356313406755e-01,-8.570150419580939705e-01,-6.000425601865764236e-01,0.000000000000000000e+00,-3.178948128436004938e-01,-8.599133665123077641e-01,-5.876701527502804501e-01,0.000000000000000000e+00,-3.305359984740026680e-01,-9.212337637009989644e-01,-6.381437838162344889e-01,0.000000000000000000e+00,-3.656964488223237164e-01,-9.212337637009989644e-01,-6.381437838162344889e-01,0.000000000000000000e+00,-3.656964488223237164e-01,-9.212337637009989644e-01,-6.381437838162344889e-01,0.000000000000000000e+00,-3.656964488223237164e-01,-9.212337637009989644e-01,-6.381437838162344889e-01,0.000000000000000000e+00,-3.656964488223237164e-01,-9.212337637009989644e-01,-6.381437838162344889e-01,0.000000000000000000e+00,-3.656964488223237164e-01,-9.212337637009989644e-01,-6.381437838162344889e-01,0.000000000000000000e+00,-3.656964488223237164e-01
-4.796235965693181891e-01,-6.381437838162344889e-01,0.000000000000000000e+00,-3.656964488223237164e-01,-9.213125299372979526e-01,1.489876308927514346e-02,0.000000000000000000e+00,-3.656964488223237164e-01,-9.213125299372979526e-01,-1.489876308927514346e-02,0.000000000000000000e+00,-3.656964488223237164e-01,-6.400574776196145121e-01,-4.476048651780291654e-01,0.000000000000000000e+00,-2.698892271285447397e-01,-7.176955595903165008e-01,-5.103469883083171510e-01,0.000000000000000000e+00,-3.037212333630786021e-01,-6.990446619109924598e-01,-4.611232012763156751e-01,0.000000000000000000e+00,-2.553380386849350425e-01,-9.213125299372979526e-01,-6.381437838162344889e-01,0.000000000000000000e+00,-1.316843033553986020e-01,-9.213125299372979526e-01,-6.381437838162344889e-01,0.000000000000000000e+00,-1.015420468569609019e-01,-9.213125299372979526e-01,-6.381437838162344889e-01,0.000000000000000000e+00,-1.324700986099641986e-01,-8.598307565900819016e-01,-5.818522658899206723e-01,0.000000000000000000e+00,-3.404921356313406755e-01,-8.571580269161358512e-01,-6.000425601865764236e-01,0.000000000000000000e+00,-3.178948128436004938e-01,-8.600534531457955101e-01,-5.876701527502804501e-01,0.000000000000000000e+00,-3.305359984740026680e-01,-9.213125299372979526e-01,-6.381437838162344889e-01,0.000000000000000000e+00,-3.656964488223237164e-01,-9.213125299372979526e-01,-6.381437838162344889e-01,0.000000000000000000e+00,-3.656964488223237164e-01,-9.213125299372979526e-01,-6.381437838162344889e-01,0.000000000000000000e+00,-3.656964488223237164e-01,-9.213125299372979526e-01,-6.381437838162344889e-01,0.000000000000000000e+00,-3.656964488223237164e-01,-9.213125299372979526e-01,-6.381437838162344889e-01,0.000000000000000000e+00,-3.656964488223237164e-01,-9.213125299372979526e-01,-6.381437838162344889e-01,0.000000000000000000e+00,-3.656964488223237164e-01
-4.801439729727488559e-01,-6.381437838162344889e-01,0.000000000000000000e+00,-3.656964488223237164e-01,-9.213912174073606298e-01,1.489876308927514346e-02,0.000000000000000000e+00,-3.656964488223237164e-01,-9.213912174073606298e-01,-1.489876308927514346e-02,0.000000000000000000e+00,-3.656964488223237164e-01,-6.404174201419948753e-01,-4.476048651780291654e-01,0.000000000000000000e+00,-2.698892271285447397e-01,-7.179778640307261650e-01,-5.103469883083171510e-01,0.000000000000000000e+00,-3.037212333630786021e-01,-6.993456172490815081e-01,-4.611232012763156751e-01,0.000000000000000000e+00,-2.553380386849350425e-01,-9.213912174073606298e-01,-6.381437838162344889e-01,0.000000000000000000e+00,-1.316843033553986020e-01,-9.213912174073606298e-01,-6.381437838162344889e-01,0.000000000000000000e+00,-1.015420468569609019e-01,-9.213912174073606298e-01,-6.381437838162344889e-01,0.000000000000000000e+00,-1.324700986099641986e-01,-8.599709258334917727e-01,-5.818522658899206723e-01,0.000000000000000000e+00,-3.404921356313406755e-01,-8.573008688892197471e-01,-6.000425601865764236e-01,0.000000000000000000e+00,-3.178948128436004938e-01,-8.601933996926497406e-01,-5.876701527502804501e-01,0.000000000000000000e+00,-3.305359984740026680e-01,-9.213912174073606298e-01,-6.381437838162344889e-01,0.000000000000000000e+00,-3.656964488223237164e-01,-9.213912174073606298e-01,-6.381437838162344889e-01,0.000000000000000000e+00,-3.656964488223237164e-01,-9.213912174073606298e-01,-6.381437838162344889e-01,0.000000000000000000e+00,-3.656964488223237164e-01,-9.213912174073606298e-01,-6.381437838162344889e-01,0.000000000000000000e+00,-3.656964488223237164e-01,-9.213912174073606298e-01,-6.381437838162344889e-01,0.000000000000000000e+00,-3.656964488223237164e-01,-9.213912174073606298e-01,-6.381437838162344889e-01,0.000000000000000000e+00,-3.656964488223237164e-01
-4.806638289997761104e-01,-6.381437838162344889e-01,0.000000000000000000e+00,-3.656964488223237164e-01,-9.214698261899533227e-01,1.489876308927514346e-02,0.000000000000000000e+00,-3.656964488223237164e-01,-9.214698261899533227e-01,-1.489876308927514346e-02,0.000000000000000000e+00,-3.656964488223237164e-01,-6.407770027218528952e-01,-4.476048651780291654e-01,0.000000000000000000e+00,-2.698892271285447397e-01,-7.182598861666954493e-01,-5.103469883083171510e-01,0.000000000000000000e+00,-3.037212333630786021e-01,-6.996462716318324615e-01,-4.611232012763156751e-01,0.000000000000000000e+00,-2.553380386849350425e-01,-9.214698261899533227e-01,-6.381437838162344889e-01,0.000000000000000000e+00,-1.316843033553986020e-01,-9.214698261899533227e-01,-6.381437838162344889e-01,0.000000000000000000e+00,-1.015420468569609019e-01,-9.214698261899533227e-01,-6.381437838162344889e-01,0.000000000000000000e+00,-1.324700986099641986e-01,-8.601109549076583205e-01,-5.818522658899206723e-01,0.000000000000000000e+00,-3.404921356313406755e-01,-8.574435680203305044e-01,-6.000425601865764236e-01,0.000000000000000000e+00,-3.178948128436004938e-01,-8.603332062929570645e-01,-5.876701527502804501e-01,0.000000000000000000e+00,-3.305359984740026680e-01,-9.214698261899533227e-01,-6.381437838162344889e-01,0.000000000000000000e+00,-3.656964488223237164e-01,-9.214698261899533227e-01,-6.381437838162344889e-01,0.000000000000000000e+00,-3.656964488223237164e-01,-9.214698261899533227e-01,-6.381437838162344889e-01,0.000000000000000000e+00,-3.656964488223237164e-01,-9.214698261899533227e-01,-6.381437838162344889e-01,0.000000000000000000e+00,-3.656964488223237164e-01,-9.214698261899533227e-01,-6.381437838162344889e-01,0.000000000000000000e+00,-3.656964488223237164e-01,-9.214698261899533227e-01,-6.381437838162344889e-01,0.000000000000000000e+00,-3.656964488223237164e-01
-4.811831651707763613e-01,-6.381437838162344889e-01,0.000000000000000000e+00,-3.656964488223237164e-01,-9.215483563637634212e-01,1.489876308927514346e-02,0.000000000000000000e+00,-3.656964488223237164e-01,-9.215483563637634212e-01,-1.489876308927514346e-02,0.000000000000000000e+00,-3.656964488223237164e-01,-6.411362257191310920e-01,-4.476048651780291654e-01,0.000000000000000000e+00,-2.698892271285447397e-01,-7.185416262805287557e-01,-5.103469883083171510e-01,0.000000000000000000e+00,-3.037212333630786021e-01,-6.999466253602005805e-01,-4.611232012763156751e-01,0.000000000000000000e+00,-2.553380386849350425e-01,-9.215483563637634212e-01,-6.381437838162344889e-01,0.000000000000000000e+00,-1.316843033553986020e-01,-9.215483563637634212e-01,-6.381437838162344889e-01,0.000000000000000000e+00,-1.015420468569609019e-01,-9.215483563637634212e-01,-6.381437838162344889e-01,0.000000000000000000e+00,-1.324700986099641986e-01,-8.602508439527506434e-01,-5.818522658899206723e-01,0.000000000000000000e+00,-3.404921356313406755e-01,-8.575861244523101945e-01,-6.000425601865764236e-01,0.000000000000000000e+00,-3.178948128436004938e-01,-8.604728730866640918e-01,-5.876701527502804501e-01,0.000000000000000000e+00,-3.305359984740026680e-01,-9.215483563637634212e-01,-6.381437838162344889e-01,0.000000000000000000e+00,-3.656964488223237164e-01,-9.215483563637634212e-01,-6.381437838162344889e-01,0.000000000000000000e+00,-3.656964488223237164e-01,-9.215483563637634212e-01,-6.381437838162344889e-01,0.000000000000000000e+00,-3.656964488223237164e-01,-9.215483563637634212e-01,-6.381437838162344889e-01,0.000000000000000000e+00,-3.656964488223237164e-01,-9.215483563637634212e-01,-6.381437838162344889e-01,0.000000000000000000e+00,-3.656964488223237164e-01,-9.215483563637634212e-01,-6.381437838162344889e-01,0.000000000000000000e+00,-3.656964488223237164e-01
-4.797019820056055983e-01,-6.381437838162344889e-01,0.000000000000000000e+00,-3.656964488223237164e-01,-9.216268080073997115e-01,1.489876308927514346e-02,0.000000000000000000e+00,-3.656964488223237164e-01,-9.216268080073997115e-01,-1.489876308927514346e-02,0.000000000000000000e+00,-3.656964488223237164e-01,-6.414950894934119408e-01,-4.476048651780291654e-01,0.000000000000000000e+00,-2.698892271285447397e-01,-7.168230846542482659e-01,-5.103469883083171510e-01,0.000000000000000000e+00,-3.037212333630786021e-01,-7.002466787348403665e-01,-4.611232012763156751e-01,0.000000000000000000e+00,-2.553380386849350425e-01,-9.216268080073997115e-01,-6.381437838162344889e-01,0.000000000000000000e+00,-1.316843033553986020e-01,-9.216268080073997115e-01,-6.381437838162344889e-01,0.000000000000000000e+00,-1.015420468569609019e-01,-9.216268080073997115e-01,-6.381437838162344889e-01,0.000000000000000000e+00,-1.324700986099641986e-01,-8.603905931087978409e-01,-5.818522658899206723e-01,0.000000000000000000e+00,-3.404921356313406755e-01,-8.577285383278578923e-01,-6.000425601865764236e-01,0.000000000000000000e+00,-3.178948128436004938e-01,-8.606124002135774331e-01,-5.876701527502804501e-01,0.000000000000000000e+00,-3.305359984740026680e-01,-9.216268080073997115e-01,-6.381437838162344889e-01,0.000000000000000000e+00,-3.656964488223237164e-01,-9.216268080073997115e-01,-6.381437838162344889e-01,0.000000000000000000e+00,-3.656964488223237164e-01,-9.216268080073997115e-01,-6.381437838162344889e-01,0.000000000000000000e+00,-3.656964488223237164e-01,-9.216268080073997115e-01,-6.381437838162344889e-01,0.000000000000000000e+00,-3.656964488223237164e-01,-9.216268080073997115e-01,-6.381437838162344889e-01,0.000000000000000000e+00,-3.656964488223237164e-01,-9.216268080073997115e-01,-6.381437838162344889e-01,0.000000000000000000e+00,-3.656964488223237164e-01
-4.782222800236000104e-01,-6.381437838162344889e-01,0.000000000000000000e+00,-3.656964488223237164e-01,-9.217051811993922650e-01,1.489876308927514346e-02,0.000000000000000000e+00,-3.656964488223237164e-01,-9.217051811993922650e-01,-1.489876308927514346e-02,0.000000000000000000e+00,-3.656964488223237164e-01,-6.418535944039185370e-01,-4.476048651780291654e-01,0.000000000000000000e+00,-2.698892271285447397e-01,-7.171062615695940057e-01,-5.103469883083171510e-01,0.000000000000000000e+00,-3.037212333630786021e-01,-7.005464320561055613e-01,-4.611232012763156751e-01,0.000000000000000000e+00,-2.553380386849350425e-01,-9.217051811993922650e-01,-6.381437838162344889e-01,0.000000000000000000e+00,-1.316843033553986020e-01,-9.217051811993922650e-01,-6.381437838162344889e-01,0.000000000000000000e+00,-1.015420468569609019e-01,-9.217051811993922650e-01,-6.381437838162344889e-01,0.000000000000000000e+00,-1.324700986099641986e-01,-8.585302025156890116e-01,-5.818522658899206723e-01,0.000000000000000000e+00,-3.404921356313406755e-01,-8.578708097895300089e-01,-6.000425601865764236e-01,0.000000000000000000e+00,-3.178948128436004938e-01,-8.607517878133638112e-01,-5.876701527502804501e-01,0.000000000000000000e+00,-3.305359984740026680e-01,-9.217051811993922650e-01,-6.381437838162344889e-01,0.000000000000000000e+00,-3.656964488223237164e-01,-9.217051811993922650e-01,-6.381437838162344889e-01,0.000000000000000000e+00,-3.656964488223237164e-01,-9.217051811993922650e-01,-6.381437838162344889e-01,0.000000000000000000e+00,-3.656964488223237164e-01,-9.217051811993922650e-01,-6.381437838162344889e-01,0.000000000000000000e+00,-3.656964488223237164e-01,-9.217051811993922650e-01,-6.381437838162344889e-01,0.000000000000000000e+00,-3.656964488223237164e-01,-9.217051811993922650e-01,-6.381437838162344889e-01,0.000000000000000000e+00,-3.656964488223237164e-01
-4.787440577435764233e-01,-6.381437838162344889e-01,0.000000000000000000e+00,-3.656964488223237164e-01,-9.217834760181928822e-01,1.489876308927514346e-02,0.000000000000000000e+00,-3.656964488223237164e-01,-9.217834760181928822e-01,-1.489876308927514346e-02,0.000000000000000000e+00,-3.656964488223237164e-01,-6.422117408095145974e-01,-4.476048651780291654e-01,0.000000000000000000e+00,-2.698892271285447397e-01,-7.173891553080243844e-01,-5.103469883083171510e-01,0.000000000000000000e+00,-3.037212333630786021e-01,-7.008458856240494805e-01,-4.611232012763156751e-01,0.000000000000000000e+00,-2.553380386849350425e-01,-9.217834760181928822e-01,-6.381437838162344889e-01,0.000000000000000000e+00,-1.316843033553986020e-01,-9.217834760181928822e-01,-6.381437838162344889e-01,0.000000000000000000e+00,-1.015420468569609019e-01,-9.217834760181928822e-01,-6.381437838162344889e-01,0.000000000000000000e+00,-1.324700986099641986e-01,-8.586716723131733175e-01,-5.818522658899206723e-01,0.000000000000000000e+00,-3.404921356313406755e-01,-8.580129389797405137e-01,-6.000425601865764236e-01,0.000000000000000000e+00,-3.178948128436004938e-01,-8.608910360255503935e-01,-5.876701527502804501e-01,0.000000000000000000e+00,-3.305359984740026680e-01,-9.217834760181928822e-01,-6.381437838162344889e-01,0.000000000000000000e+00,-3.656964488223237164e-01,-9.217834760181928822e-01,-6.381437838162344889e-01,0.000000000000000000e+00,-3.656964488223237164e-01,-9.217834760181928822e-01,-6.381437838162344889e-01,0.000000000000000000e+00,-3.656964488223237164e-01,-9.217834760181928822e-01,-6.381437838162344889e-01,0.000000000000000000e+00,-3.656964488223237164e-01,-9.217834760181928822e-01,-6.381437838162344889e-01,0.000000000000000000e+00,-3.656964488223237164e-01,-9.217834760181928822e-01,-6.381437838162344889e-01,0.000000000000000000e+00,-3.656964488223237164e-01
-4.792653136858328611e-01,-6.381437838162344889e-01,0.000000000000000000e+00,-3.656964488223237164e-01,-9.218616925421746489e-01,1.489876308927514346e-02,0.000000000000000000e+00,-3.656964488223237164e-01,-9.218616925421746489e-01,-1.489876308927514346e-02,0.000000000000000000e+00,-3.656964488223237164e-01,-6.425695290687051253e-01,-4.476048651780291654e-01,0.000000000000000000e+00,-2.698892271285447397e-01,-7.176717661527163283e-01,-5.103469883083171510e-01,0.000000000000000000e+00,-3.037212333630786021e-01,-7.011450397384254574e-01,-4.611232012763156751e-01,0.000000000000000000e+00,-2.553380386849350425e-01,-9.218616925421746489e-01,-6.381437838162344889e-01,0.000000000000000000e+00,-1.316843033553986020e-01,-9.218616925421746489e-01,-6.381437838162344889e-01,0.000000000000000000e+00,-1.015420468569609019e-01,-9.218616925421746489e-01,-6.381437838162344889e-01,0.000000000000000000e+00,-1.324700986099641986e-01,-8.588130006408601913e-01,-5.818522658899206723e-01,0.000000000000000000e+00,-3.404921356313406755e-01,-8.581549260407608237e-01,-6.000425601865764236e-01,0.000000000000000000e+00,-3.178948128436004938e-01,-8.610301449895247927e-01,-5.876701527502804501e-01,0.000000000000000000e+00,-3.305359984740026680e-01,-9.218616925421746489e-01,-6.381437838162344889e-01,0.000000000000000000e+00,-3.656964488223237164e-01,-9.218616925421746489e-01,-6.381437838162344889e-01,0.000000000000000000e+00,-3.656964488223237164e-01,-9.218616925421746489e-01,-6.381437838162344889e-01,0.000000000000000000e+00,-3.656964488223237164e-01,-9.218616925421746489e-01,-6.381437838162344889e-01,0.000000000000000000e+00,-3.656964488223237164e-01,-9.218616925421746489e-01,-6.381437838162344889e-01,0.000000000000000000e+00,-3.656964488223237164e-01,-9.218616925421746489e-01,-6.381437838162344889e-01,0.000000000000000000e+00,-3.656964488223237164e-01
-4.797860483721470004e-01,-6.381437838162344889e-01,0.000000000000000000e+00,-3.656964488223237164e-01,-9.219398308496324912e-01,1.489876308927514346e-02,0.000000000000000000e+00,-3.656964488223237164e-01,-9.219398308496324912e-01,-1.489876308927514346e-02,0.000000000000000000e+00,-3.656964488223237164e-01,-6.429269595396364112e-01,-4.476048651780291654e-01,0.000000000000000000e+00,-2.698892271285447397e-01,-7.179540943865636571e-01,-5.103469883083171510e-01,0.000000000000000000e+00,-3.037212333630786021e-01,-7.014438946986870649e-01,-4.611232012763156751e-01,0.000000000000000000e+00,-2.553380386849350425e-01,-9.219398308496324912e-01,-6.381437838162344889e-01,0.000000000000000000e+00,-1.316843033553986020e-01,-9.219398308496324912e-01,-6.381437838162344889e-01,0.000000000000000000e+00,-1.015420468569609019e-01,-9.219398308496324912e-01,-6.381437838162344889e-01,0.000000000000000000e+00,-1.324700986099641986e-01,-8.589541876402193576e-01,-5.818522658899206723e-01,0.000000000000000000e+00,-3.404921356313406755e-01,-8.582967711147200252e-01,-6.000425601865764236e-01,0.000000000000000000e+00,-3.178948128436004938e-01,-8.611691148445352884e-01,-5.876701527502804501e-01,0.000000000000000000e+00,-3.305359984740026680e-01,-9.219398308496324912e-01,-6.381437838162344889e-01,0.000000000000000000e+00,-3.656964488223237164e-01,-9.219398308496324912e-01,-6.381437838162344889e-01,0.000000000000000000e+00,-3.656964488223237164e-01,-9.219398308496324912e-01,-6.381437838162344889e-01,0.000000000000000000e+00,-3.656964488223237164e-01,-9.219398308496324912e-01,-6.381437838162344889e-01,0.000000000000000000e+00,-3.656964488223237164e-01,-9.219398308496324912e-01,-6.381437838162344889e-01,0.000000000000000000e+00,-3.656964488223237164e-01,-9.219398308496324912e-01,-6.381437838162344889e-01,0.000000000000000000e+00,-3.656964488223237164e-01
-4.803062623237748796e-01,-6.381437838162344889e-01,0.000000000000000000e+00,-3.656964488223237164e-01,-9.220178910187828425e-01,1.489876308927514346e-02,0.000000000000000000e+00,-3.656964488223237164e-01,-9.220178910187828425e-01,-1.489876308927514346e-02,0.000000000000000000e+00,-3.656964488223237164e-01,-6.432840325800968095e-01,-4.476048651780291654e-01,0.000000000000000000e+00,-2.698892271285447397e-01,-7.182361402921770832e-01,-5.103469883083171510e-01,0.000000000000000000e+00,-3.037212333630786021e-01,-6.997424508039883362e-01,-4.611232012763156751e-01,0.000000000000000000e+00,-2.553380386849350425e-01,-9.220178910187828425e-01,-6.381437838162344889e-01,0.000000000000000000e+00,-1.316843033553986020e-01,-9.220178910187828425e-01,-6.381437838162344889e-01,0.000000000000000000e+00,-1.015420468569609019e-01,-9.220178910187828425e-01,-6.381437838162344889e-01,0.000000000000000000e+00,-1.324700986099641986e-01,-8.590952334525790990e-01,-5.818522658899206723e-01,0.000000000000000000e+00,-3.404921356313406755e-01,-8.584384743436053178e-01,-6.000425601865764236e-01,0.000000000000000000e+00,-3.178948128436004938e-01,-8.613079457296907160e-01,-5.876701527502804501e-01,0.000000000000000000e+00,-3.305359984740026680e-01,-9.220178910187828425e-01,-6.381437838162344889e-01,0.000000000000000000e+00,-3.656964488223237164e-01,-9.220178910187828425e-01,-6.381437838162344889e-01,0.000000000000000000e+00,-3.656964488223237164e-01,-9.220178910187828425e-01,-6.381437838162344889e-01,0.000000000000000000e+00,-3.656964488223237164e-01,-9.220178910187828425e-01,-6.381437838162344889e-01,0.000000000000000000e+00,-3.656964488223237164e-01,-9.220178910187828425e-01,-6.381437838162344889e-01,0.000000000000000000e+00,-3.656964488223237164e-01,-9.220178910187828425e-01,-6.381437838162344889e-01,0.000000000000000000e+00,-3.656964488223237164e-01
-4.808259560614511208e-01,-6.381437838162344889e-01,0.000000000000000000e+00,-3.656964488223237164e-01,-9.220958731277640874e-01,1.489876308927514346e-02,0.000000000000000000e+00,-3.656964488223237164e-01,-9.220958731277640874e-01,-1.489876308927514346e-02,0.000000000000000000e+00,-3.656964488223237164e-01,-6.436407485475167389e-01,-4.476048651780291654e-01,0.000000000000000000e+00,-2.698892271285447397e-01,-7.185179041518848786e-01,-5.103469883083171510e-01,0.000000000000000000e+00,-3.037212333630786021e-01,-6.980427083531843824e-01,-4.611232012763156751e-01,0.000000000000000000e+00,-2.553380386849350425e-01,-9.220958731277640874e-01,-6.381437838162344889e-01,0.000000000000000000e+00,-1.316843033553986020e-01,-9.220958731277640874e-01,-6.381437838162344889e-01,0.000000000000000000e+00,-1.015420468569609019e-01,-9.220958731277640874e-01,-6.381437838162344889e-01,0.000000000000000000e+00,-1.324700986099641986e-01,-8.592361382191264774e-01,-5.818522658899206723e-01,0.000000000000000000e+00,-3.404921356313406755e-01,-8.585800358692616818e-01,-6.000425601865764236e-01,0.000000000000000000e+00,-3.178948128436004938e-01,-8.614466377839610223e-01,-5.876701527502804501e-01,0.000000000000000000e+00,-3.305359984740026680e-01,-9.220958731277640874e-01,-6.381437838162344889e-01,0.000000000000000000e+00,-3.656964488223237164e-01,-9.220958731277640874e-01,-6.381437838162344889e-01,0.000000000000000000e+00,-3.656964488223237164e-01,-9.220958731277640874e-01,-6.381437838162344889e-01,0.000000000000000000e+00,-3.656964488223237164e-01,-9.220958731277640874e-01,-6.381437838162344889e-01,0.000000000000000000e+00,-3.656964488223237164e-01,-9.220958731277640874e-01,-6.381437838162344889e-01,0.000000000000000000e+00,-3.656964488223237164e-01,-9.220958731277640874e-01,-6.381437838162344889e-01,0.000000000000000000e+00,-3.656964488223237164e-01
-4.793451301053896496e-01,-6.381437838162344889e-01,0.000000000000000000e+00,-3.656964488223237164e-01,-9.221737772546363399e-01,1.489876308927514346e-02,0.000000000000000000e+00,-3.656964488223237164e-01,-9.221737772546363399e-01,-1.489876308927514346e-02,0.000000000000000000e+00,-3.656964488223237164e-01,-6.439971077989692372e-01,-4.476048651780291654e-01,0.000000000000000000e+00,-2.698892271285447397e-01,-7.187993862477329854e-01,-5.103469883083171510e-01,0.000000000000000000e+00,-3.037212333630786021e-01,-6.983446656448312195e-01,-4.611232012763156751e-01,0.000000000000000000e+00,-2.553380386849350425e-01,-9.221737772546363399e-01,-6.381437838162344889e-01,0.000000000000000000e+00,-1.316843033553986020e-01,-9.221737772546363399e-01,-6.381437838162344889e-01,0.000000000000000000e+00,-1.015420468569609019e-01,-9.221737772546363399e-01,-6.381437838162344889e-01,0.000000000000000000e+00,-1.324700986099641986e-01,-8.593769020809073345e-01,-5.818522658899206723e-01,0.000000000000000000e+00,-3.404921356313406755e-01,-8.587214558333924330e-01,-6.000425601865764236e-01,0.000000000000000000e+00,-3.178948128436004938e-01,-8.615851911461770429e-01,-5.876701527502804501e-01,0.000000000000000000e+00,-3.305359984740026680e-01,-9.221737772546363399e-01,-6.381437838162344889e-01,0.000000000000000000e+00,-3.656964488223237164e-01,-9.221737772546363399e-01,-6.381437838162344889e-01,0.000000000000000000e+00,-3.656964488223237164e-01,-9.221737772546363399e-01,-6.381437838162344889e-01,0.000000000000000000e+00,-3.656964488223237164e-01,-9.221737772546363399e-01,-6.381437838162344889e-01,0.000000000000000000e+00,-3.656964488223237164e-01,-9.221737772546363399e-01,-6.381437838162344889e-01,0.000000000000000000e+00,-3.656964488223237164e-01,-9.221737772546363399e-01,-6.381437838162344889e-01,0.000000000000000000e+00,-3.656964488223237164e-01
-4.793451301053896496e-01,-6.385056400324182757e-01,0.000000000000000000e+00,-3.656964488223237164e-01,-9.221737772546363399e-01,1.588386432618586752e-02,0.000000000000000000e+00,-3.656964488223237164e-01,-9.221737772546363399e-01,-1.588386432618586752e-02,0.000000000000000000e+00,-3.656964488223237164e-01,-6.439971077989692372e-01,-4.481572603128511356e-01,0.000000000000000000e+00,-2.698892271285447397e-01,-7.187993862477329854e-01,-5.108366413200088330e-01,0.000000000000000000e+00,-3.037212333630786021e-01,-6.983446656448312195e-01,-4.616620780750393394e-01,0.000000000000000000e+00,-2.553380386849350425e-01,-9.221737772546363399e-01,-6.385056400324182757e-01,0.000000000000000000e+00,-1.316843033553986020e-01,-9.221737772546363399e-01,-6.385056400324182757e-01,0.000000000000000000e+00,-1.015420468569609019e-01,-9.221737772546363399e-01,-6.385056400324182757e-01,0.000000000000000000e+00,-1.324700986099641986e-01,-8.593769020809073345e-01,-5.802704136240307564e-01,0.000000000000000000e+00,-3.404921356313406755e-01,-8.587214558333924330e-01,-6.004425176263898933e-01,0.000000000000000000e+00,-3.178948128436004938e-01,-8.615851911461770429e-01,-5.880824825975301540e-01,0.000000000000000000e+00,-3.305359984740026680e-01,-9.221737772546363399e-01,-6.385056400324182757e-01,0.000000000000000000e+00,-3.656964488223237164e-01,-9.221737772546363399e-01,-6.385056400324182757e-01,0.000000000000000000e+00,-3.656964488223237164e-01,-9.221737772546363399e-01,-6.385056400324182757e-01,0.000000000000000000e+00,-3.656964488223237164e-01,-9.221737772546363399e-01,-6.385056400324182757e-01,0.000000000000000000e+00,-3.656964488223237164e-01,-9.221737772546363399e-01,-6.385056400324182757e-01,0.000000000000000000e+00,-3.656964488223237164e-01,-9.221737772546363399e-01,-6.385056400324182757e-01,0.000000000000000000e+00,-3.656964488223237164e-01
-4.793451301053896496e-01,-6.388671343923858492e-01,0.000000000000000000e+00,-3.656964488223237164e-01,-9.221737772546363399e-01,1.686798046185968014e-02,0.000000000000000000e+00,-3.656964488223237164e-01,-9.221737772546363399e-01,-1.686798046185968014e-02,0.000000000000000000e+00,-3.656964488223237164e-01,-6.439971077989692372e-01,-4.487091030525383051e-01,0.000000000000000000e+00,-2.698892271285447397e-01,-7.187993862477329854e-01,-5.113258046786888222e-01,0.000000000000000000e+00,-3.037212333630786021e-01,-6.983446656448312195e-01,-4.602004159969643182e-01,0.000000000000000000e+00,-2.553380386849350425e-01,-9.221737772546363399e-01,-6.388671343923858492e-01,0.000000000000000000e+00,-1.316843033553986020e-01,-9.221737772546363399e-01,-6.388671343923858492e-01,0.000000000000000000e+00,-1.015420468569609019e-01,-9.221737772546363399e-01,-6.388671343923858492e-01,0.000000000000000000e+00,-1.324700986099641986e-01,-8.593769020809073345e-01,-5.806901432104066840e-01,0.000000000000000000e+00,-3.404921356313406755e-01,-8.587214558333924330e-01,-6.008420751087635292e-01,0.000000000000000000e+00,-3.178948128436004938e-01,-8.615851911461770429e-01,-5.884944001149325921e-01,0.000000000000000000e+00,-3.305359984740026680e-01,-9.221737772546363399e-01,-6.388671343923858492e-01,0.000000000000000000e+00,-3.656964488223237164e-01,-9.221737772546363399e-01,-6.388671343923858492e-01,0.000000000000000000e+00,-3.656964488223237164e-01,-9.221737772546363399e-01,-6.388671343923858492e-01,0.000000000000000000e+00,-3.656964488223237164e-01,-9.221737772546363399e-01,-6.388671343923858492e-01,0.000000000000000000e+00,-3.656964488223237164e-01,-9.221737772546363399e-01,-6.388671343923858492e-01,0.000000000000000000e+00,-3.656964488223237164e-01,-9.221737772546363399e-01,-6.388671343923858492e-01,0.000000000000000000e+00,-3.656964488223237164e-01
-4.793451301053896496e-01,-6.392282672579934211e-01,0.000000000000000000e+00,-3.656964488223237164e-01,-9.221737772546363399e-01,1.585111248139782145e-02,0.000000000000000000e+00,-3.656964488223237164e-01,-9.221737772546363399e-01,-1.585111248139782145e-02,0.000000000000000000e+00,-3.656964488223237164e-01,-6.439971077989692372e-01,-4.492603939494857479e-01,0.000000000000000000e+00,-2.698892271285447397e-01,-7.187993862477329854e-01,-5.098144788740101019e-01,0.000000000000000000e+00,-3.037212333630786021e-01,-6.983446656448312195e-01,-4.607402155809673383e-01,0.000000000000000000e+00,-2.553380386849350425e-01,-9.221737772546363399e-01,-6.392282672579934211e-01,0.000000000000000000e+00,-1.316843033553986020e-01,-9.221737772546363399e-01,-6.392282672579934211e-01,0.000000000000000000e+00,-1.015420468569609019e-01,-9.221737772546363399e-01,-6.392282672579934211e-01,0.000000000000000000e+00,-1.324700986099641986e-01,-8.593769020809073345e-01,-5.811094530671963021e-01,0.000000000000000000e+00,-3.404921356313406755e-01,-8.587214558333924330e-01,-6.012412330336547317e-01,0.000000000000000000e+00,-3.178948128436004938e-01,-8.615851911461770429e-01,-5.889059057148177123e-01,0.000000000000000000e+00,-3.305359984740026680e-01,-9.221737772546363399e-01,-6.392282672579934211e-01,0.000000000000000000e+00,-3.656964488223237164e-01,-9.221737772546363399e-01,-6.392282672579934211e-01,0.000000000000000000e+00,-3.656964488223237164e-01,-9.221737772546363399e-01,-6.392282672579934211e-01,0.000000000000000000e+00,-3.656964488223237164e-01,-9.221737772546363399e-01,-6.392282672579934211e-01,0.000000000000000000e+00,-3.656964488223237164e-01,-9.221737772546363399e-01,-6.392282672579934211e-01,0.000000000000000000e+00,-3.656964488223237164e-01,-9.221737772546363399e-01,-6.392282672579934211e-01,0.000000000000000000e+00,-3.656964488223237164e-01
-4.778657849752842579e-01,-6.392282672579934211e-01,0.000000000000000000e+00,-3.656964488223237164e-01,-9.222516034773816651e-01,1.585111248139782145e-02,0.000000000000000000e+00,-3.656964488223237164e-01,-9.222516034773816651e-01,-1.585111248139782145e-02,0.000000000000000000e+00,-3.656964488223237164e-01,-6.443531106911702944e-01,-4.492603939494857479e-01,0.000000000000000000e+00,-2.698892271285447397e-01,-7.190805868614852381e-01,-5.098144788740101019e-01,0.000000000000000000e+00,-3.037212333630786021e-01,-6.986463209791864415e-01,-4.607402155809673383e-01,0.000000000000000000e+00,-2.553380386849350425e-01,-9.222516034773816651e-01,-6.392282672579934211e-01,0.000000000000000000e+00,-1.316843033553986020e-01,-9.222516034773816651e-01,-6.392282672579934211e-01,0.000000000000000000e+00,-1.015420468569609019e-01,-9.222516034773816651e-01,-6.392282672579934211e-01,0.000000000000000000e+00,-1.324700986099641986e-01,-8.595175251788264026e-01,-5.811094530671963021e-01,0.000000000000000000e+00,-3.404921356313406755e-01,-8.588627343775590006e-01,-6.012412330336547317e-01,0.000000000000000000e+00,-3.178948128436004938e-01,-8.617236059550308358e-01,-5.889059057148177123e-01,0.000000000000000000e+00,-3.305359984740026680e-01,-9.222516034773816651e-01,-6.392282672579934211e-01,0.000000000000000000e+00,-3.656964488223237164e-01,-9.222516034773816651e-01,-6.392282672579934211e-01,0.000000000000000000e+00,-3.656964488223237164e-01,-9.222516034773816651e-01,-6.392282672579934211e-01,0.000000000000000000e+00,-3.656964488223237164e-01,-9.222516034773816651e-01,-6.392282672579934211e-01,0.000000000000000000e+00,-3.656964488223237164e-01,-9.222516034773816651e-01,-6.392282672579934211e-01,0.000000000000000000e+00,-3.656964488223237164e-01,-9.222516034773816651e-01,-6.392282672579934211e-01,0.000000000000000000e+00,-3.656964488223237164e-01
-4.778657849752842579e-01,-6.392282672579934211e-01,0.000000000000000000e+00,-3.663307523735013782e-01,-9.222516034773816651e-01,1.585111248139782145e-02,0.000000000000000000e+00,-3.663307523735013782e-01,-9.222516034773816651e-01,-1.585111248139782145e-02,0.000000000000000000e+00,-3.663307523735013782e-01,-6.443531106911702944e-01,-4.492603939494857479e-01,0.000000000000000000e+00,-2.706193379014161793e-01,-7.190805868614852381e-01,-5.098144788740101019e-01,0.000000000000000000e+00,-3.044175121297155173e-01,-6.986463209791864415e-01,-4.607402155809673383e-01,0.000000000000000000e+00,-2.560827006462501054e-01,-9.222516034773816651e-01,-6.392282672579934211e-01,0.000000000000000000e+00,-1.325526190520432135e-01,-9.222516034773816651e-01,-6.392282672579934211e-01,0.000000000000000000e+00,-1.024405048101039439e-01,-9.222516034773816651e-01,-6.392282672579934211e-01,0.000000000000000000e+00,-1.313376285113542208e-01,-8.595175251788264026e-01,-5.811094530671963021e-01,0.000000000000000000e+00,-3.411516434957093113e-01,-8.588627343775590006e-01,-6.012412330336547317e-01,0.000000000000000000e+00,-3.185769180307568837e-01,-8.617236059550308358e-01,-5.889059057148177123e-01,0.000000000000000000e+00,-3.312054624755286780e-01,-9.222516034773816651e-01,-6.392282672579934211e-01,0.000000000000000000e+00,-3.663307523735013782e-01,-9.222516034773816651e-01,-6.392282672579934211e-01,0.000000000000000000e+00,-3.663307523735013782e-01,-9.222516034773816651e-01,-6.392282672579934211e-01,0.000000000000000000e+00,-3.663307523735013782e-01,-9.222516034773816651e-01,-6.392282672579934211e-01,0.000000000000000000e+00,-3.663307523735013782e-01,-9.222516034773816651e-01,-6.392282672579934211e-01,0.000000000000000000e+00,-3.663307523735013782e-01,-9.222516034773816651e-01,-6.392282672579934211e-01,0.000000000000000000e+00,-3.663307523735013782e-01
-4.783879191903089856e-01,-6.392282672579934211e-01,0.000000000000000000e+00,-3.663307523735013782e-01,-9.223293518739043018e-01,1.585111248139782145e-02,0.000000000000000000e+00,-3.663307523735013782e-01,-9.223293518739043018e-01,-1.585111248139782145e-02,0.000000000000000000e+00,-3.663307523735013782e-01,-6.447087575804790749e-01,-4.492603939494857479e-01,0.000000000000000000e+00,-2.706193379014161793e-01,-7.193615062746238076e-01,-5.098144788740101019e-01,0.000000000000000000e+00,-3.044175121297155173e-01,-6.989476746582072852e-01,-4.607402155809673383e-01,0.000000000000000000e+00,-2.560827006462501054e-01,-9.223293518739043018e-01,-6.392282672579934211e-01,0.000000000000000000e+00,-1.325526190520432135e-01,-9.223293518739043018e-01,-6.392282672579934211e-01,0.000000000000000000e+00,-1.024405048101039439e-01,-9.223293518739043018e-01,-6.392282672579934211e-01,0.000000000000000000e+00,-1.313376285113542208e-01,-8.596580076536475268e-01,-5.811094530671963021e-01,0.000000000000000000e+00,-3.411516434957093113e-01,-8.590038716431814825e-01,-6.012412330336547317e-01,0.000000000000000000e+00,-3.185769180307568837e-01,-8.618618823490757919e-01,-5.889059057148177123e-01,0.000000000000000000e+00,-3.312054624755286780e-01,-9.223293518739043018e-01,-6.392282672579934211e-01,0.000000000000000000e+00,-3.663307523735013782e-01,-9.223293518739043018e-01,-6.392282672579934211e-01,0.000000000000000000e+00,-3.663307523735013782e-01,-9.223293518739043018e-01,-6.392282672579934211e-01,0.000000000000000000e+00,-3.663307523735013782e-01,-9.223293518739043018e-01,-6.392282672579934211e-01,0.000000000000000000e+00,-3.663307523735013782e-01,-9.223293518739043018e-01,-6.392282672579934211e-01,0.000000000000000000e+00,-3.663307523735013782e-01,-9.223293518739043018e-01,-6.392282672579934211e-01,0.000000000000000000e+00,-3.663307523735013782e-01
-4.783879191903089856e-01,-6.395890389907353812e-01,0.000000000000000000e+00,-3.663307523735013782e-01,-9.223293518739043018e-01,1.483526136891642408e-02,0.000000000000000000e+00,-3.663307523735013782e-01,-9.223293518739043018e-01,-1.483526136891642408e-02,0.000000000000000000e+00,-3.663307523735013782e-01,-6.447087575804790749e-01,-4.498111335555362578e-01,0.000000000000000000e+00,-2.706193379014161793e-01,-7.193615062746238076e-01,-5.103046643951361094e-01,0.000000000000000000e+00,-3.044175121297155173e-01,-6.989476746582072852e-01,-4.612794753653863822e-01,0.000000000000000000e+00,-2.560827006462501054e-01,-9.223293518739043018e-01,-6.395890389907353812e-01,0.000000000000000000e+00,-1.325526190520432135e-01,-9.223293518739043018e-01,-6.395890389907353812e-01,0.000000000000000000e+00,-1.024405048101039439e-01,-9.223293518739043018e-01,-6.395890389907353812e-01,0.000000000000000000e+00,-1.313376285113542208e-01,-8.596580076536475268e-01,-5.795283436141290823e-01,0.000000000000000000e+00,-3.411516434957093113e-01,-8.590038716431814825e-01,-6.016399918006211101e-01,0.000000000000000000e+00,-3.185769180307568837e-01,-8.618618823490757919e-01,-5.893169998091029038e-01,0.000000000000000000e+00,-3.312054624755286780e-01,-9.223293518739043018e-01,-6.395890389907353812e-01,0.000000000000000000e+00,-3.663307523735013782e-01,-9.223293518739043018e-01,-6.395890389907353812e-01,0.000000000000000000e+00,-3.663307523735013782e-01,-9.223293518739043018e-01,-6.395890389907353812e-01,0.000000000000000000e+00,-3.663307523735013782e-01,-9.223293518739043018e-01,-6.395890389907353812e-01,0.000000000000000000e+00,-3.663307523735013782e-01,-9.223293518739043018e-01,-6.395890389907353812e-01,0.000000000000000000e+00,-3.663307523735013782e-01,-9.223293518739043018e-01,-6.395890389907353812e-01,0.000000000000000000e+00,-3.663307523735013782e-01
-4.789095312711186825e-01,-6.395890389907353812e-01,0.000000000000000000e+00,-3.663307523735013782e-01,-9.224070225220304398e-01,1.483526136891642408e-02,0.000000000000000000e+00,-3.663307523735013782e-01,-9.224070225220304398e-01,-1.483526136891642408e-02,0.000000000000000000e+00,-3.663307523735013782e-01,-6.430640488228985818e-01,-4.498111335555362578e-01,0.000000000000000000e+00,-2.706193379014161793e-01,-7.196421447683492012e-01,-5.103046643951361094e-01,0.000000000000000000e+00,-3.044175121297155173e-01,-6.992487269835491182e-01,-4.612794753653863822e-01,0.000000000000000000e+00,-2.560827006462501054e-01,-9.224070225220304398e-01,-6.395890389907353812e-01,0.000000000000000000e+00,-1.325526190520432135e-01,-9.224070225220304398e-01,-6.395890389907353812e-01,0.000000000000000000e+00,-1.024405048101039439e-01,-9.224070225220304398e-01,-6.395890389907353812e-01,0.000000000000000000e+00,-1.313376285113542208e-01,-8.597983496459938868e-01,-5.795283436141290823e-01,0.000000000000000000e+00,-3.411516434957093113e-01,-8.591448677715383120e-01,-6.016399918006211101e-01,0.000000000000000000e+00,-3.185769180307568837e-01,-8.620000204667267463e-01,-5.893169998091029038e-01,0.000000000000000000e+00,-3.312054624755286780e-01,-9.224070225220304398e-01,-6.395890389907353812e-01,0.000000000000000000e+00,-3.663307523735013782e-01,-9.224070225220304398e-01,-6.395890389907353812e-01,0.000000000000000000e+00,-3.663307523735013782e-01,-9.224070225220304398e-01,-6.395890389907353812e-01,0.000000000000000000e+00,-3.663307523735013782e-01,-9.224070225220304398e-01,-6.395890389907353812e-01,0.000000000000000000e+00,-3.663307523735013782e-01,-9.224070225220304398e-01,-6.395890389907353812e-01,0.000000000000000000e+00,-3.663307523735013782e-01,-9.224070225220304398e-01,-6.395890389907353812e-01,0.000000000000000000e+00,-3.663307523735013782e-01
-4.774306217398475716e-01,-6.395890389907353812e-01,0.000000000000000000e+00,-3.663307523735013782e-01,-9.224846154995084424e-01,1.483526136891642408e-02,0.000000000000000000e+00,-3.663307523735013782e-01,-9.224846154995084424e-01,-1.483526136891642408e-02,0.000000000000000000e+00,-3.663307523735013782e-01,-6.434209847740757215e-01,-4.498111335555362578e-01,0.000000000000000000e+00,-2.706193379014161793e-01,-7.199225026235808178e-01,-5.103046643951361094e-01,0.000000000000000000e+00,-3.044175121297155173e-01,-6.995494782565655489e-01,-4.612794753653863822e-01,0.000000000000000000e+00,-2.560827006462501054e-01,-9.224846154995084424e-01,-6.395890389907353812e-01,0.000000000000000000e+00,-1.325526190520432135e-01,-9.224846154995084424e-01,-6.395890389907353812e-01,0.000000000000000000e+00,-1.024405048101039439e-01,-9.224846154995084424e-01,-6.395890389907353812e-01,0.000000000000000000e+00,-1.313376285113542208e-01,-8.599385512963478861e-01,-5.795283436141290823e-01,0.000000000000000000e+00,-3.411516434957093113e-01,-8.572857229037668114e-01,-6.016399918006211101e-01,0.000000000000000000e+00,-3.185769180307568837e-01,-8.621380204462599783e-01,-5.893169998091029038e-01,0.000000000000000000e+00,-3.312054624755286780e-01,-9.224846154995084424e-01,-6.395890389907353812e-01,0.000000000000000000e+00,-3.663307523735013782e-01,-9.224846154995084424e-01,-6.395890389907353812e-01,0.000000000000000000e+00,-3.663307523735013782e-01,-9.224846154995084424e-01,-6.395890389907353812e-01,0.000000000000000000e+00,-3.663307523735013782e-01,-9.224846154995084424e-01,-6.395890389907353812e-01,0.000000000000000000e+00,-3.663307523735013782e-01,-9.224846154995084424e-01,-6.395890389907353812e-01,0.000000000000000000e+00,-3.663307523735013782e-01,-9.224846154995084424e-01,-6.395890389907353812e-01,0.000000000000000000e+00,-3.663307523735013782e-01
-4.779531911181077453e-01,-6.395890389907353812e-01,0.000000000000000000e+00,-3.663307523735013782e-01,-9.225621308840089574e-01,1.483526136891642408e-02,0.000000000000000000e+00,-3.663307523735013782e-01,-9.225621308840089574e-01,-1.483526136891642408e-02,0.000000000000000000e+00,-3.663307523735013782e-01,-6.437775637893016212e-01,-4.498111335555362578e-01,0.000000000000000000e+00,-2.706193379014161793e-01,-7.202025801209572808e-01,-5.103046643951361094e-01,0.000000000000000000e+00,-3.044175121297155173e-01,-6.998499287783089828e-01,-4.612794753653863822e-01,0.000000000000000000e+00,-2.560827006462501054e-01,-9.225621308840089574e-01,-6.395890389907353812e-01,0.000000000000000000e+00,-1.325526190520432135e-01,-9.225621308840089574e-01,-6.395890389907353812e-01,0.000000000000000000e+00,-1.024405048101039439e-01,-9.225621308840089574e-01,-6.395890389907353812e-01,0.000000000000000000e+00,-1.313376285113542208e-01,-8.600786127450514851e-01,-5.795283436141290823e-01,0.000000000000000000e+00,-3.411516434957093113e-01,-8.574284371808630345e-01,-6.016399918006211101e-01,0.000000000000000000e+00,-3.185769180307568837e-01,-8.622758824258137667e-01,-5.893169998091029038e-01,0.000000000000000000e+00,-3.312054624755286780e-01,-9.225621308840089574e-01,-6.395890389907353812e-01,0.000000000000000000e+00,-3.663307523735013782e-01,-9.225621308840089574e-01,-6.395890389907353812e-01,0.000000000000000000e+00,-3.663307523735013782e-01,-9.225621308840089574e-01,-6.395890389907353812e-01,0.000000000000000000e+00,-3.663307523735013782e-01,-9.225621308840089574e-01,-6.395890389907353812e-01,0.000000000000000000e+00,-3.663307523735013782e-01,-9.225621308840089574e-01,-6.395890389907353812e-01,0.000000000000000000e+00,-3.663307523735013782e-01,-9.225621308840089574e-01,-6.395890389907353812e-01,0.000000000000000000e+00,-3.663307523735013782e-01
-4.779531911181077453e-01,-6.399494499517446311e-01,0.000000000000000000e+00,-3.663307523735013782e-01,-9.225621308840089574e-01,1.582042610754750764e-02,0.000000000000000000e+00,-3.663307523735013782e-01,-9.225621308840089574e-01,-1.582042610754750764e-02,0.000000000000000000e+00,-3.663307523735013782e-01,-6.437775637893016212e-01,-4.503613224219807365e-01,0.000000000000000000e+00,-2.706193379014161793e-01,-7.202025801209572808e-01,-5.107943597307409433e-01,0.000000000000000000e+00,-3.044175121297155173e-01,-6.998499287783089828e-01,-4.598181958900209865e-01,0.000000000000000000e+00,-2.560827006462501054e-01,-9.225621308840089574e-01,-6.399494499517446311e-01,0.000000000000000000e+00,-1.325526190520432135e-01,-9.225621308840089574e-01,-6.399494499517446311e-01,0.000000000000000000e+00,-1.024405048101039439e-01,-9.225621308840089574e-01,-6.399494499517446311e-01,0.000000000000000000e+00,-1.313376285113542208e-01,-8.600786127450514851e-01,-5.799488152705150057e-01,0.000000000000000000e+00,-3.411516434957093113e-01,-8.574284371808630345e-01,-6.020383518088204822e-01,0.000000000000000000e+00,-3.185769180307568837e-01,-8.622758824258137667e-01,-5.897276828092937739e-01,0.000000000000000000e+00,-3.312054624755286780e-01,-9.225621308840089574e-01,-6.399494499517446311e-01,0.000000000000000000e+00,-3.663307523735013782e-01,-9.225621308840089574e-01,-6.399494499517446311e-01,0.000000000000000000e+00,-3.663307523735013782e-01,-9.225621308840089574e-01,-6.399494499517446311e-01,0.000000000000000000e+00,-3.663307523735013782e-01,-9.225621308840089574e-01,-6.399494499517446311e-01,0.000000000000000000e+00,-3.663307523735013782e-01,-9.225621308840089574e-01,-6.399494499517446311e-01,0.000000000000000000e+00,-3.663307523735013782e-01,-9.225621308840089574e-01,-6.399494499517446311e-01,0.000000000000000000e+00,-3.663307523735013782e-01
-4.784752379269896494e-01,-6.399494499517446311e-01,0.000000000000000000e+00,-3.663307523735013782e-01,-9.226395687531249168e-01,1.582042610754750764e-02,0.000000000000000000e+00,-3.663307523735013782e-01,-9.226395687531249168e-01,-1.582042610754750764e-02,0.000000000000000000e+00,-3.663307523735013782e-01,-6.441337862255123170e-01,-4.503613224219807365e-01,0.000000000000000000e+00,-2.706193379014161793e-01,-7.204823775408363273e-01,-5.107943597307409433e-01,0.000000000000000000e+00,-3.044175121297155173e-01,-7.001500788495306216e-01,-4.598181958900209865e-01,0.000000000000000000e+00,-2.560827006462501054e-01,-9.226395687531249168e-01,-6.399494499517446311e-01,0.000000000000000000e+00,-1.325526190520432135e-01,-9.226395687531249168e-01,-6.399494499517446311e-01,0.000000000000000000e+00,-1.024405048101039439e-01,-9.226395687531249168e-01,-6.399494499517446311e-01,0.000000000000000000e+00,-1.313376285113542208e-01,-8.602185341323064227e-01,-5.799488152705150057e-01,0.000000000000000000e+00,-3.411516434957093113e-01,-8.575710087436821949e-01,-6.020383518088204822e-01,0.000000000000000000e+00,-3.185769180307568837e-01,-8.624136065433879450e-01,-5.897276828092937739e-01,0.000000000000000000e+00,-3.312054624755286780e-01,-9.226395687531249168e-01,-6.399494499517446311e-01,0.000000000000000000e+00,-3.663307523735013782e-01,-9.226395687531249168e-01,-6.399494499517446311e-01,0.000000000000000000e+00,-3.663307523735013782e-01,-9.226395687531249168e-01,-6.399494499517446311e-01,0.000000000000000000e+00,-3.663307523735013782e-01,-9.226395687531249168e-01,-6.399494499517446311e-01,0.000000000000000000e+00,-3.663307523735013782e-01,-9.226395687531249168e-01,-6.399494499517446311e-01,0.000000000000000000e+00,-3.663307523735013782e-01,-9.226395687531249168e-01,-6.399494499517446311e-01,0.000000000000000000e+00,-3.663307523735013782e-01
-4.789967626890626606e-01,-6.399494499517446311e-01,0.000000000000000000e+00,-3.663307523735013782e-01,-9.227169291843717591e-01,1.582042610754750764e-02,0.000000000000000000e+00,-3.663307523735013782e-01,-9.227169291843717591e-01,-1.582042610754750764e-02,0.000000000000000000e+00,-3.663307523735013782e-01,-6.444896524392867976e-01,-4.503613224219807365e-01,0.000000000000000000e+00,-2.706193379014161793e-01,-7.207618951632954740e-01,-5.107943597307409433e-01,0.000000000000000000e+00,-3.044175121297155173e-01,-7.004499287706811295e-01,-4.598181958900209865e-01,0.000000000000000000e+00,-2.560827006462501054e-01,-9.227169291843717591e-01,-6.399494499517446311e-01,0.000000000000000000e+00,-1.325526190520432135e-01,-9.227169291843717591e-01,-6.399494499517446311e-01,0.000000000000000000e+00,-1.024405048101039439e-01,-9.227169291843717591e-01,-6.399494499517446311e-01,0.000000000000000000e+00,-1.313376285113542208e-01,-8.603583155981741060e-01,-5.799488152705150057e-01,0.000000000000000000e+00,-3.411516434957093113e-01,-8.557134377349384646e-01,-6.020383518088204822e-01,0.000000000000000000e+00,-3.185769180307568837e-01,-8.625511929368445685e-01,-5.897276828092937739e-01,0.000000000000000000e+00,-3.312054624755286780e-01,-9.227169291843717591e-01,-6.399494499517446311e-01,0.000000000000000000e+00,-3.663307523735013782e-01,-9.227169291843717591e-01,-6.399494499517446311e-01,0.000000000000000000e+00,-3.663307523735013782e-01,-9.227169291843717591e-01,-6.399494499517446311e-01,0.000000000000000000e+00,-3.663307523735013782e-01,-9.227169291843717591e-01,-6.399494499517446311e-01,0.000000000000000000e+00,-3.663307523735013782e-01,-9.227169291843717591e-01,-6.399494499517446311e-01,0.000000000000000000e+00,-3.663307523735013782e-01,-9.227169291843717591e-01,-6.399494499517446311e-01,0.000000000000000000e+00,-3.663307523735013782e-01
-4.789967626890626606e-01,-6.399494499517446311e-01,0.000000000000000000e+00,-3.669644216211278565e-01,-9.227169291843717591e-01,1.582042610754750764e-02,0.000000000000000000e+00,-3.669644216211278565e-01,-9.227169291843717591e-01,-1.582042610754750764e-02,0.000000000000000000e+00,-3.669644216211278565e-01,-6.444896524392867976e-01,-4.503613224219807365e-01,0.000000000000000000e+00,-2.713487185635147791e-01,-7.207618951632954740e-01,-5.107943597307409433e-01,0.000000000000000000e+00,-3.051130946175857894e-01,-7.004499287706811295e-01,-4.598181958900209865e-01,0.000000000000000000e+00,-2.568266179456038523e-01,-9.227169291843717591e-01,-6.399494499517446311e-01,0.000000000000000000e+00,-1.334200664329911745e-01,-9.227169291843717591e-01,-6.399494499517446311e-01,0.000000000000000000e+00,-1.033380643052938391e-01,-9.227169291843717591e-01,-6.399494499517446311e-01,0.000000000000000000e+00,-1.302062908828428567e-01,-8.603583155981741060e-01,-5.799488152705150057e-01,0.000000000000000000e+00,-3.418104918522136271e-01,-8.557134377349384646e-01,-6.020383518088204822e-01,0.000000000000000000e+00,-3.192583411127261073e-01,-8.625511929368445685e-01,-5.897276828092937739e-01,0.000000000000000000e+00,-3.318742570130531755e-01,-9.227169291843717591e-01,-6.399494499517446311e-01,0.000000000000000000e+00,-3.669644216211278565e-01,-9.227169291843717591e-01,-6.399494499517446311e-01,0.000000000000000000e+00,-3.669644216211278565e-01,-9.227169291843717591e-01,-6.399494499517446311e-01,0.000000000000000000e+00,-3.669644216211278565e-01,-9.227169291843717591e-01,-6.399494499517446311e-01,0.000000000000000000e+00,-3.669644216211278565e-01,-9.227169291843717591e-01,-6.399494499517446311e-01,0.000000000000000000e+00,-3.669644216211278565e-01,-9.227169291843717591e-01,-6.399494499517446311e-01,0.000000000000000000e+00,-3.669644216211278565e-01
-4.795177659263735737e-01,-6.399494499517446311e-01,0.000000000000000000e+00,-3.669644216211278565e-01,-9.227942122551874293e-01,1.582042610754750764e-02,0.000000000000000000e+00,-3.669644216211278565e-01,-9.227942122551874293e-01,-1.582042610754750764e-02,0.000000000000000000e+00,-3.669644216211278565e-01,-6.428451627868475571e-01,-4.503613224219807365e-01,0.000000000000000000e+00,-2.713487185635147791e-01,-7.210411332681321284e-01,-5.107943597307409433e-01,0.000000000000000000e+00,-3.051130946175857894e-01,-7.007494788419104115e-01,-4.598181958900209865e-01,0.000000000000000000e+00,-2.568266179456038523e-01,-9.227942122551874293e-01,-6.399494499517446311e-01,0.000000000000000000e+00,-1.334200664329911745e-01,-9.227942122551874293e-01,-6.399494499517446311e-01,0.000000000000000000e+00,-1.033380643052938391e-01,-9.227942122551874293e-01,-6.399494499517446311e-01,0.000000000000000000e+00,-1.302062908828428567e-01,-8.604979572825759426e-01,-5.799488152705150057e-01,0.000000000000000000e+00,-3.418104918522136271e-01,-8.558577242972035259e-01,-6.020383518088204822e-01,0.000000000000000000e+00,-3.192583411127261073e-01,-8.626886417439076915e-01,-5.897276828092937739e-01,0.000000000000000000e+00,-3.318742570130531755e-01,-9.227942122551874293e-01,-6.399494499517446311e-01,0.000000000000000000e+00,-3.669644216211278565e-01,-9.227942122551874293e-01,-6.399494499517446311e-01,0.000000000000000000e+00,-3.669644216211278565e-01,-9.227942122551874293e-01,-6.399494499517446311e-01,0.000000000000000000e+00,-3.669644216211278565e-01,-9.227942122551874293e-01,-6.399494499517446311e-01,0.000000000000000000e+00,-3.669644216211278565e-01,-9.227942122551874293e-01,-6.399494499517446311e-01,0.000000000000000000e+00,-3.669644216211278565e-01,-9.227942122551874293e-01,-6.399494499517446311e-01,0.000000000000000000e+00,-3.669644216211278565e-01
-4.800382481604472118e-01,-6.399494499517446311e-01,0.000000000000000000e+00,-3.669644216211278565e-01,-9.228714180429322678e-01,1.582042610754750764e-02,0.000000000000000000e+00,-3.669644216211278565e-01,-9.228714180429322678e-01,-1.582042610754750764e-02,0.000000000000000000e+00,-3.669644216211278565e-01,-6.412023176240606581e-01,-4.503613224219807365e-01,0.000000000000000000e+00,-2.713487185635147791e-01,-7.213200921348640327e-01,-5.107943597307409433e-01,0.000000000000000000e+00,-3.051130946175857894e-01,-7.010487293630685013e-01,-4.598181958900209865e-01,0.000000000000000000e+00,-2.568266179456038523e-01,-9.228714180429322678e-01,-6.399494499517446311e-01,0.000000000000000000e+00,-1.334200664329911745e-01,-9.228714180429322678e-01,-6.399494499517446311e-01,0.000000000000000000e+00,-1.033380643052938391e-01,-9.228714180429322678e-01,-6.399494499517446311e-01,0.000000000000000000e+00,-1.302062908828428567e-01,-8.606374593252933414e-01,-5.799488152705150057e-01,0.000000000000000000e+00,-3.418104918522136271e-01,-8.560018665729063336e-01,-6.020383518088204822e-01,0.000000000000000000e+00,-3.192583411127261073e-01,-8.628259531021638118e-01,-5.897276828092937739e-01,0.000000000000000000e+00,-3.318742570130531755e-01,-9.228714180429322678e-01,-6.399494499517446311e-01,0.000000000000000000e+00,-3.669644216211278565e-01,-9.228714180429322678e-01,-6.399494499517446311e-01,0.000000000000000000e+00,-3.669644216211278565e-01,-9.228714180429322678e-01,-6.399494499517446311e-01,0.000000000000000000e+00,-3.669644216211278565e-01,-9.228714180429322678e-01,-6.399494499517446311e-01,0.000000000000000000e+00,-3.669644216211278565e-01,-9.228714180429322678e-01,-6.399494499517446311e-01,0.000000000000000000e+00,-3.669644216211278565e-01,-9.228714180429322678e-01,-6.399494499517446311e-01,0.000000000000000000e+00,-3.669644216211278565e-01
-4.800382481604472118e-01,-6.403095005017929164e-01,0.000000000000000000e+00,-3.669644216211278565e-01,-9.228714180429322678e-01,1.680460568143996025e-02,0.000000000000000000e+00,-3.669644216211278565e-01,-9.228714180429322678e-01,-1.680460568143996025e-02,0.000000000000000000e+00,-3.669644216211278565e-01,-6.412023176240606581e-01,-4.509109610995587492e-01,0.000000000000000000e+00,-2.713487185635147791e-01,-7.213200921348640327e-01,-5.112835653710101624e-01,0.000000000000000000e+00,-3.051130946175857894e-01,-7.010487293630685013e-01,-4.603583776941309602e-01,0.000000000000000000e+00,-2.568266179456038523e-01,-9.228714180429322678e-01,-6.403095005017929164e-01,0.000000000000000000e+00,-1.334200664329911745e-01,-9.228714180429322678e-01,-6.403095005017929164e-01,0.000000000000000000e+00,-1.033380643052938391e-01,-9.228714180429322678e-01,-6.403095005017929164e-01,0.000000000000000000e+00,-1.302062908828428567e-01,-8.606374593252933414e-01,-5.803688664552444365e-01,0.000000000000000000e+00,-3.418104918522136271e-01,-8.560018665729063336e-01,-6.024363134570116518e-01,0.000000000000000000e+00,-3.192583411127261073e-01,-8.628259531021638118e-01,-5.901379551264844814e-01,0.000000000000000000e+00,-3.318742570130531755e-01,-9.228714180429322678e-01,-6.403095005017929164e-01,0.000000000000000000e+00,-3.669644216211278565e-01,-9.228714180429322678e-01,-6.403095005017929164e-01,0.000000000000000000e+00,-3.669644216211278565e-01,-9.228714180429322678e-01,-6.403095005017929164e-01,0.000000000000000000e+00,-3.669644216211278565e-01,-9.228714180429322678e-01,-6.403095005017929164e-01,0.000000000000000000e+00,-3.669644216211278565e-01,-9.228714180429322678e-01,-6.403095005017929164e-01,0.000000000000000000e+00,-3.669644216211278565e-01,-9.228714180429322678e-01,-6.403095005017929164e-01,0.000000000000000000e+00,-3.669644216211278565e-01
-4.805582099122867601e-01,-6.403095005017929164e-01,0.000000000000000000e+00,-3.669644216211278565e-01,-9.229485466248893433e-01,1.680460568143996025e-02,0.000000000000000000e+00,-3.669644216211278565e-01,-9.229485466248893433e-01,-1.680460568143996025e-02,0.000000000000000000e+00,-3.669644216211278565e-01,-6.415611153064365579e-01,-4.509109610995587492e-01,0.000000000000000000e+00,-2.713487185635147791e-01,-7.215987720427291530e-01,-5.112835653710101624e-01,0.000000000000000000e+00,-3.051130946175857894e-01,-7.013476806337054503e-01,-4.603583776941309602e-01,0.000000000000000000e+00,-2.568266179456038523e-01,-9.229485466248893433e-01,-6.403095005017929164e-01,0.000000000000000000e+00,-1.334200664329911745e-01,-9.229485466248893433e-01,-6.403095005017929164e-01,0.000000000000000000e+00,-1.033380643052938391e-01,-9.229485466248893433e-01,-6.403095005017929164e-01,0.000000000000000000e+00,-1.302062908828428567e-01,-8.607768218659680448e-01,-5.803688664552444365e-01,0.000000000000000000e+00,-3.418104918522136271e-01,-8.561458647063334704e-01,-6.024363134570116518e-01,0.000000000000000000e+00,-3.192583411127261073e-01,-8.629631271490616484e-01,-5.901379551264844814e-01,0.000000000000000000e+00,-3.318742570130531755e-01,-9.229485466248893433e-01,-6.403095005017929164e-01,0.000000000000000000e+00,-3.669644216211278565e-01,-9.229485466248893433e-01,-6.403095005017929164e-01,0.000000000000000000e+00,-3.669644216211278565e-01,-9.229485466248893433e-01,-6.403095005017929164e-01,0.000000000000000000e+00,-3.669644216211278565e-01,-9.229485466248893433e-01,-6.403095005017929164e-01,0.000000000000000000e+00,-3.669644216211278565e-01,-9.229485466248893433e-01,-6.403095005017929164e-01,0.000000000000000000e+00,-3.669644216211278565e-01,-9.229485466248893433e-01,-6.403095005017929164e-01,0.000000000000000000e+00,-3.669644216211278565e-01
-4.810776517023744869e-01,-6.403095005017929164e-01,0.000000000000000000e+00,-3.669644216211278565e-01,-9.230255980782644532e-01,1.680460568143996025e-02,0.000000000000000000e+00,-3.669644216211278565e-01,-9.230255980782644532e-01,-1.680460568143996025e-02,0.000000000000000000e+00,-3.669644216211278565e-01,-6.399195541911301133e-01,-4.509109610995587492e-01,0.000000000000000000e+00,-2.713487185635147791e-01,-7.218771732706864563e-01,-5.112835653710101624e-01,0.000000000000000000e+00,-3.051130946175857894e-01,-7.016463329530717719e-01,-4.603583776941309602e-01,0.000000000000000000e+00,-2.568266179456038523e-01,-9.230255980782644532e-01,-6.403095005017929164e-01,0.000000000000000000e+00,-1.334200664329911745e-01,-9.230255980782644532e-01,-6.403095005017929164e-01,0.000000000000000000e+00,-1.033380643052938391e-01,-9.230255980782644532e-01,-6.403095005017929164e-01,0.000000000000000000e+00,-1.302062908828428567e-01,-8.609160450441021295e-01,-5.803688664552444365e-01,0.000000000000000000e+00,-3.418104918522136271e-01,-8.562897188416271899e-01,-6.024363134570116518e-01,0.000000000000000000e+00,-3.192583411127261073e-01,-8.631001640219125859e-01,-5.901379551264844814e-01,0.000000000000000000e+00,-3.318742570130531755e-01,-9.230255980782644532e-01,-6.403095005017929164e-01,0.000000000000000000e+00,-3.669644216211278565e-01,-9.230255980782644532e-01,-6.403095005017929164e-01,0.000000000000000000e+00,-3.669644216211278565e-01,-9.230255980782644532e-01,-6.403095005017929164e-01,0.000000000000000000e+00,-3.669644216211278565e-01,-9.230255980782644532e-01,-6.403095005017929164e-01,0.000000000000000000e+00,-3.669644216211278565e-01,-9.230255980782644532e-01,-6.403095005017929164e-01,0.000000000000000000e+00,-3.669644216211278565e-01,-9.230255980782644532e-01,-6.403095005017929164e-01,0.000000000000000000e+00,-3.669644216211278565e-01
-4.815965740506721326e-01,-6.403095005017929164e-01,0.000000000000000000e+00,-3.669644216211278565e-01,-9.231025724801862342e-01,1.680460568143996025e-02,0.000000000000000000e+00,-3.669644216211278565e-01,-9.231025724801862342e-01,-1.680460568143996025e-02,0.000000000000000000e+00,-3.669644216211278565e-01,-6.402796346369389324e-01,-4.509109610995587492e-01,0.000000000000000000e+00,-2.713487185635147791e-01,-7.221552960974157997e-01,-5.112835653710101624e-01,0.000000000000000000e+00,-3.051130946175857894e-01,-6.999446866201186612e-01,-4.603583776941309602e-01,0.000000000000000000e+00,-2.568266179456038523e-01,-9.231025724801862342e-01,-6.403095005017929164e-01,0.000000000000000000e+00,-1.334200664329911745e-01,-9.231025724801862342e-01,-6.403095005017929164e-01,0.000000000000000000e+00,-1.033380643052938391e-01,-9.231025724801862342e-01,-6.403095005017929164e-01,0.000000000000000000e+00,-1.302062908828428567e-01,-8.610551289990580059e-01,-5.803688664552444365e-01,0.000000000000000000e+00,-3.418104918522136271e-01,-8.564334291227855278e-01,-6.024363134570116518e-01,0.000000000000000000e+00,-3.192583411127261073e-01,-8.632370638578906741e-01,-5.901379551264844814e-01,0.000000000000000000e+00,-3.318742570130531755e-01,-9.231025724801862342e-01,-6.403095005017929164e-01,0.000000000000000000e+00,-3.669644216211278565e-01,-9.231025724801862342e-01,-6.403095005017929164e-01,0.000000000000000000e+00,-3.669644216211278565e-01,-9.231025724801862342e-01,-6.403095005017929164e-01,0.000000000000000000e+00,-3.669644216211278565e-01,-9.231025724801862342e-01,-6.403095005017929164e-01,0.000000000000000000e+00,-3.669644216211278565e-01,-9.231025724801862342e-01,-6.403095005017929164e-01,0.000000000000000000e+00,-3.669644216211278565e-01,-9.231025724801862342e-01,-6.403095005017929164e-01,0.000000000000000000e+00,-3.669644216211278565e-01
-4.801149774766214628e-01,-6.403095005017929164e-01,0.000000000000000000e+00,-3.669644216211278565e-01,-9.231794699077060518e-01,1.680460568143996025e-02,0.000000000000000000e+00,-3.669644216211278565e-01,-9.231794699077060518e-01,-1.680460568143996025e-02,0.000000000000000000e+00,-3.669644216211278565e-01,-6.406393550023019579e-01,-4.509109610995587492e-01,0.000000000000000000e+00,-2.713487185635147791e-01,-7.224331408013183742e-01,-5.112835653710101624e-01,0.000000000000000000e+00,-3.051130946175857894e-01,-7.002447419334985046e-01,-4.603583776941309602e-01,0.000000000000000000e+00,-2.568266179456038523e-01,-9.231794699077060518e-01,-6.403095005017929164e-01,0.000000000000000000e+00,-1.334200664329911745e-01,-9.231794699077060518e-01,-6.403095005017929164e-01,0.000000000000000000e+00,-1.033380643052938391e-01,-9.231794699077060518e-01,-6.403095005017929164e-01,0.000000000000000000e+00,-1.302062908828428567e-01,-8.611940738700589737e-01,-5.803688664552444365e-01,0.000000000000000000e+00,-3.418104918522136271e-01,-8.565769956936627461e-01,-6.024363134570116518e-01,0.000000000000000000e+00,-3.192583411127261073e-01,-8.633738267940327393e-01,-5.901379551264844814e-01,0.000000000000000000e+00,-3.318742570130531755e-01,-9.231794699077060518e-01,-6.403095005017929164e-01,0.000000000000000000e+00,-3.669644216211278565e-01,-9.231794699077060518e-01,-6.403095005017929164e-01,0.000000000000000000e+00,-3.669644216211278565e-01,-9.231794699077060518e-01,-6.403095005017929164e-01,0.000000000000000000e+00,-3.669644216211278565e-01,-9.231794699077060518e-01,-6.403095005017929164e-01,0.000000000000000000e+00,-3.669644216211278565e-01,-9.231794699077060518e-01,-6.403095005017929164e-01,0.000000000000000000e+00,-3.669644216211278565e-01,-9.231794699077060518e-01,-6.403095005017929164e-01,0.000000000000000000e+00,-3.669644216211278565e-01
-4.786348624991448308e-01,-6.403095005017929164e-01,0.000000000000000000e+00,-3.669644216211278565e-01,-9.232562904377983326e-01,1.680460568143996025e-02,0.000000000000000000e+00,-3.669644216211278565e-01,-9.232562904377983326e-01,-1.680460568143996025e-02,0.000000000000000000e+00,-3.669644216211278565e-01,-6.409987156472997105e-01,-4.509109610995587492e-01,0.000000000000000000e+00,-2.713487185635147791e-01,-7.227107076605170377e-01,-5.112835653710101624e-01,0.000000000000000000e+00,-3.051130946175857894e-01,-7.005444971915649743e-01,-4.603583776941309602e-01,0.000000000000000000e+00,-2.568266179456038523e-01,-9.232562904377983326e-01,-6.403095005017929164e-01,0.000000000000000000e+00,-1.334200664329911745e-01,-9.232562904377983326e-01,-6.403095005017929164e-01,0.000000000000000000e+00,-1.033380643052938391e-01,-9.232562904377983326e-01,-6.403095005017929164e-01,0.000000000000000000e+00,-1.302062908828428567e-01,-8.613328797961888883e-01,-5.803688664552444365e-01,0.000000000000000000e+00,-3.418104918522136271e-01,-8.567204186979691105e-01,-6.024363134570116518e-01,0.000000000000000000e+00,-3.192583411127261073e-01,-8.635104529672387175e-01,-5.901379551264844814e-01,0.000000000000000000e+00,-3.318742570130531755e-01,-9.232562904377983326e-01,-6.403095005017929164e-01,0.000000000000000000e+00,-3.669644216211278565e-01,-9.232562904377983326e-01,-6.403095005017929164e-01,0.000000000000000000e+00,-3.669644216211278565e-01,-9.232562904377983326e-01,-6.403095005017929164e-01,0.000000000000000000e+00,-3.669644216211278565e-01,-9.232562904377983326e-01,-6.403095005017929164e-01,0.000000000000000000e+00,-3.669644216211278565e-01,-9.232562904377983326e-01,-6.403095005017929164e-01,0.000000000000000000e+00,-3.669644216211278565e-01,-9.232562904377983326e-01,-6.403095005017929164e-01,0.000000000000000000e+00,-3.669644216211278565e-01
-4.791562276366456707e-01,-6.403095005017929164e-01,0.000000000000000000e+00,-3.669644216211278565e-01,-9.233330341473605651e-01,1.680460568143996025e-02,0.000000000000000000e+00,-3.669644216211278565e-01,-9.233330341473605651e-01,-1.680460568143996025e-02,0.000000000000000000e+00,-3.669644216211278565e-01,-6.413577169316524440e-01,-4.509109610995587492e-01,0.000000000000000000e+00,-2.713487185635147791e-01,-7.229879969528565375e-01,-5.112835653710101624e-01,0.000000000000000000e+00,-3.051130946175857894e-01,-7.008439526943733844e-01,-4.603583776941309602e-01,0.000000000000000000e+00,-2.568266179456038523e-01,-9.233330341473605651e-01,-6.403095005017929164e-01,0.000000000000000000e+00,-1.334200664329911745e-01,-9.233330341473605651e-01,-6.403095005017929164e-01,0.000000000000000000e+00,-1.033380643052938391e-01,-9.233330341473605651e-01,-6.403095005017929164e-01,0.000000000000000000e+00,-1.302062908828428567e-01,-8.614715469163927164e-01,-5.803688664552444365e-01,0.000000000000000000e+00,-3.418104918522136271e-01,-8.568636982792711132e-01,-6.024363134570116518e-01,0.000000000000000000e+00,-3.192583411127261073e-01,-8.636469425142714318e-01,-5.901379551264844814e-01,0.000000000000000000e+00,-3.318742570130531755e-01,-9.233330341473605651e-01,-6.403095005017929164e-01,0.000000000000000000e+00,-3.669644216211278565e-01,-9.233330341473605651e-01,-6.403095005017929164e-01,0.000000000000000000e+00,-3.669644216211278565e-01,-9.233330341473605651e-01,-6.403095005017929164e-01,0.000000000000000000e+00,-3.669644216211278565e-01,-9.233330341473605651e-01,-6.403095005017929164e-01,0.000000000000000000e+00,-3.669644216211278565e-01,-9.233330341473605651e-01,-6.403095005017929164e-01,0.000000000000000000e+00,-3.669644216211278565e-01,-9.233330341473605651e-01,-6.403095005017929164e-01,0.000000000000000000e+00,-3.669644216211278565e-01
-4.791562276366456707e-01,-6.406691910012911606e-01,0.000000000000000000e+00,-3.669644216211278565e-01,-9.233330341473605651e-01,1.778780107575851990e-02,0.000000000000000000e+00,-3.669644216211278565e-01,-9.233330341473605651e-01,-1.778780107575851990e-02,0.000000000000000000e+00,-3.669644216211278565e-01,-6.413577169316524440e-01,-4.514600501384591902e-01,0.000000000000000000e+00,-2.713487185635147791e-01,-7.229879969528565375e-01,-5.117722818056391620e-01,0.000000000000000000e+00,-3.051130946175857894e-01,-7.008439526943733844e-01,-4.608980193164368133e-01,0.000000000000000000e+00,-2.568266179456038523e-01,-9.233330341473605651e-01,-6.406691910012911606e-01,0.000000000000000000e+00,-1.334200664329911745e-01,-9.233330341473605651e-01,-6.406691910012911606e-01,0.000000000000000000e+00,-1.033380643052938391e-01,-9.233330341473605651e-01,-6.406691910012911606e-01,0.000000000000000000e+00,-1.302062908828428567e-01,-8.614715469163927164e-01,-5.807884975887891432e-01,0.000000000000000000e+00,-3.418104918522136271e-01,-8.568636982792711132e-01,-6.028338771435546306e-01,0.000000000000000000e+00,-3.192583411127261073e-01,-8.636469425142714318e-01,-5.905478171713579583e-01,0.000000000000000000e+00,-3.318742570130531755e-01,-9.233330341473605651e-01,-6.406691910012911606e-01,0.000000000000000000e+00,-3.669644216211278565e-01,-9.233330341473605651e-01,-6.406691910012911606e-01,0.000000000000000000e+00,-3.669644216211278565e-01,-9.233330341473605651e-01,-6.406691910012911606e-01,0.000000000000000000e+00,-3.669644216211278565e-01,-9.233330341473605651e-01,-6.406691910012911606e-01,0.000000000000000000e+00,-3.669644216211278565e-01,-9.233330341473605651e-01,-6.406691910012911606e-01,0.000000000000000000e+00,-3.669644216211278565e-01,-9.233330341473605651e-01,-6.406691910012911606e-01,0.000000000000000000e+00,-3.669644216211278565e-01
-4.791562276366456707e-01,-6.410285218102899085e-01,0.000000000000000000e+00,-3.669644216211278565e-01,-9.233330341473605651e-01,1.677001327468276293e-02,0.000000000000000000e+00,-3.669644216211278565e-01,-9.233330341473605651e-01,-1.677001327468276293e-02,0.000000000000000000e+00,-3.669644216211278565e-01,-6.413577169316524440e-01,-4.520085900883207275e-01,0.000000000000000000e+00,-2.713487185635147791e-01,-7.229879969528565375e-01,-5.122605095238335071e-01,0.000000000000000000e+00,-3.051130946175857894e-01,-7.008439526943733844e-01,-4.614371212971203895e-01,0.000000000000000000e+00,-2.568266179456038523e-01,-9.233330341473605651e-01,-6.410285218102899085e-01,0.000000000000000000e+00,-1.334200664329911745e-01,-9.233330341473605651e-01,-6.410285218102899085e-01,0.000000000000000000e+00,-1.033380643052938391e-01,-9.233330341473605651e-01,-6.410285218102899085e-01,0.000000000000000000e+00,-1.302062908828428567e-01,-8.614715469163927164e-01,-5.812077090912003419e-01,0.000000000000000000e+00,-3.418104918522136271e-01,-8.568636982792711132e-01,-6.032310432664110822e-01,0.000000000000000000e+00,-3.192583411127261073e-01,-8.636469425142714318e-01,-5.909572693541865762e-01,0.000000000000000000e+00,-3.318742570130531755e-01,-9.233330341473605651e-01,-6.410285218102899085e-01,0.000000000000000000e+00,-3.669644216211278565e-01,-9.233330341473605651e-01,-6.410285218102899085e-01,0.000000000000000000e+00,-3.669644216211278565e-01,-9.233330341473605651e-01,-6.410285218102899085e-01,0.000000000000000000e+00,-3.669644216211278565e-01,-9.233330341473605651e-01,-6.410285218102899085e-01,0.000000000000000000e+00,-3.669644216211278565e-01,-9.233330341473605651e-01,-6.410285218102899085e-01,0.000000000000000000e+00,-3.669644216211278565e-01,-9.233330341473605651e-01,-6.410285218102899085e-01,0.000000000000000000e+00,-3.669644216211278565e-01
-4.791562276366456707e-01,-6.413874932884796598e-01,0.000000000000000000e+00,-3.669644216211278565e-01,-9.233330341473605651e-01,1.575324326140807932e-02,0.000000000000000000e+00,-3.669644216211278565e-01,-9.233330341473605651e-01,-1.575324326140807932e-02,0.000000000000000000e+00,-3.669644216211278565e-01,-6.413577169316524440e-01,-4.525565814982324131e-01,0.000000000000000000e+00,-2.713487185635147791e-01,-7.229879969528565375e-01,-5.127482490143097094e-01,0.000000000000000000e+00,-3.051130946175857894e-01,-7.008439526943733844e-01,-4.619756841758232424e-01,0.000000000000000000e+00,-2.568266179456038523e-01,-9.233330341473605651e-01,-6.413874932884796598e-01,0.000000000000000000e+00,-1.334200664329911745e-01,-9.233330341473605651e-01,-6.413874932884796598e-01,0.000000000000000000e+00,-1.033380643052938391e-01,-9.233330341473605651e-01,-6.413874932884796598e-01,0.000000000000000000e+00,-1.302062908828428567e-01,-8.614715469163927164e-01,-5.816265013821091401e-01,0.000000000000000000e+00,-3.418104918522136271e-01,-8.568636982792711132e-01,-6.036278122231446552e-01,0.000000000000000000e+00,-3.192583411127261073e-01,-8.636469425142714318e-01,-5.913663120848323684e-01,0.000000000000000000e+00,-3.318742570130531755e-01,-9.233330341473605651e-01,-6.413874932884796598e-01,0.000000000000000000e+00,-3.669644216211278565e-01,-9.233330341473605651e-01,-6.413874932884796598e-01,0.000000000000000000e+00,-3.669644216211278565e-01,-9.233330341473605651e-01,-6.413874932884796598e-01,0.000000000000000000e+00,-3.669644216211278565e-01,-9.233330341473605651e-01,-6.413874932884796598e-01,0.000000000000000000e+00,-3.669644216211278565e-01,-9.233330341473605651e-01,-6.413874932884796598e-01,0.000000000000000000e+00,-3.669644216211278565e-01,-9.233330341473605651e-01,-6.413874932884796598e-01,0.000000000000000000e+00,-3.669644216211278565e-01
-4.796770714090090038e-01,-6.413874932884796598e-01,0.000000000000000000e+00,-3.669644216211278565e-01,-9.234097011132131883e-01,1.575324326140807932e-02,0.000000000000000000e+00,-3.669644216211278565e-01,-9.234097011132131883e-01,-1.575324326140807932e-02,0.000000000000000000e+00,-3.669644216211278565e-01,-6.417163592147208107e-01,-4.525565814982324131e-01,0.000000000000000000e+00,-2.713487185635147791e-01,-7.232650089559037321e-01,-5.127482490143097094e-01,0.000000000000000000e+00,-3.051130946175857894e-01,-7.011431087416790664e-01,-4.619756841758232424e-01,0.000000000000000000e+00,-2.568266179456038523e-01,-9.234097011132131883e-01,-6.413874932884796598e-01,0.000000000000000000e+00,-1.334200664329911745e-01,-9.234097011132131883e-01,-6.413874932884796598e-01,0.000000000000000000e+00,-1.033380643052938391e-01,-9.234097011132131883e-01,-6.413874932884796598e-01,0.000000000000000000e+00,-1.302062908828428567e-01,-8.616100753694763137e-01,-5.816265013821091401e-01,0.000000000000000000e+00,-3.418104918522136271e-01,-8.570068345809918053e-01,-6.036278122231446552e-01,0.000000000000000000e+00,-3.192583411127261073e-01,-8.637832955717571481e-01,-5.913663120848323684e-01,0.000000000000000000e+00,-3.318742570130531755e-01,-9.234097011132131883e-01,-6.413874932884796598e-01,0.000000000000000000e+00,-3.669644216211278565e-01,-9.234097011132131883e-01,-6.413874932884796598e-01,0.000000000000000000e+00,-3.669644216211278565e-01,-9.234097011132131883e-01,-6.413874932884796598e-01,0.000000000000000000e+00,-3.669644216211278565e-01,-9.234097011132131883e-01,-6.413874932884796598e-01,0.000000000000000000e+00,-3.669644216211278565e-01,-9.234097011132131883e-01,-6.413874932884796598e-01,0.000000000000000000e+00,-3.669644216211278565e-01,-9.234097011132131883e-01,-6.413874932884796598e-01,0.000000000000000000e+00,-3.669644216211278565e-01
-4.801973943376000031e-01,-6.413874932884796598e-01,0.000000000000000000e+00,-3.669644216211278565e-01,-9.234862914120999244e-01,1.575324326140807932e-02,0.000000000000000000e+00,-3.669644216211278565e-01,-9.234862914120999244e-01,-1.575324326140807932e-02,0.000000000000000000e+00,-3.669644216211278565e-01,-6.420746428555060836e-01,-4.525565814982324131e-01,0.000000000000000000e+00,-2.713487185635147791e-01,-7.235417439469478129e-01,-5.127482490143097094e-01,0.000000000000000000e+00,-3.051130946175857894e-01,-7.014419656329373698e-01,-4.619756841758232424e-01,0.000000000000000000e+00,-2.568266179456038523e-01,-9.234862914120999244e-01,-6.413874932884796598e-01,0.000000000000000000e+00,-1.334200664329911745e-01,-9.234862914120999244e-01,-6.413874932884796598e-01,0.000000000000000000e+00,-1.033380643052938391e-01,-9.234862914120999244e-01,-6.413874932884796598e-01,0.000000000000000000e+00,-1.302062908828428567e-01,-8.617484652941068690e-01,-5.816265013821091401e-01,0.000000000000000000e+00,-3.418104918522136271e-01,-8.571498277464107973e-01,-6.036278122231446552e-01,0.000000000000000000e+00,-3.192583411127261073e-01,-8.639195122761853529e-01,-5.913663120848323684e-01,0.000000000000000000e+00,-3.318742570130531755e-01,-9.234862914120999244e-01,-6.413874932884796598e-01,0.000000000000000000e+00,-3.669644216211278565e-01,-9.234862914120999244e-01,-6.413874932884796598e-01,0.000000000000000000e+00,-3.669644216211278565e-01,-9.234862914120999244e-01,-6.413874932884796598e-01,0.000000000000000000e+00,-3.669644216211278565e-01,-9.234862914120999244e-01,-6.413874932884796598e-01,0.000000000000000000e+00,-3.669644216211278565e-01,-9.234862914120999244e-01,-6.413874932884796598e-01,0.000000000000000000e+00,-3.669644216211278565e-01,-9.234862914120999244e-01,-6.413874932884796598e-01,0.000000000000000000e+00,-3.669644216211278565e-01
-4.801973943376000031e-01,-6.417461057951912018e-01,0.000000000000000000e+00,-3.669644216211278565e-01,-9.234862914120999244e-01,1.473749001814667059e-02,0.000000000000000000e+00,-3.669644216211278565e-01,-9.234862914120999244e-01,-1.473749001814667059e-02,0.000000000000000000e+00,-3.669644216211278565e-01,-6.420746428555060836e-01,-4.531040249167341827e-01,0.000000000000000000e+00,-2.713487185635147791e-01,-7.235417439469478129e-01,-5.132355007652954493e-01,0.000000000000000000e+00,-3.051130946175857894e-01,-7.014419656329373698e-01,-4.625137084916474128e-01,0.000000000000000000e+00,-2.568266179456038523e-01,-9.234862914120999244e-01,-6.417461057951912018e-01,0.000000000000000000e+00,-1.334200664329911745e-01,-9.234862914120999244e-01,-6.417461057951912018e-01,0.000000000000000000e+00,-1.033380643052938391e-01,-9.234862914120999244e-01,-6.417461057951912018e-01,0.000000000000000000e+00,-1.302062908828428567e-01,-8.617484652941068690e-01,-5.820448748807269812e-01,0.000000000000000000e+00,-3.418104918522136271e-01,-8.571498277464107973e-01,-6.040241844109215386e-01,0.000000000000000000e+00,-3.192583411127261073e-01,-8.639195122761853529e-01,-5.917749457727475848e-01,0.000000000000000000e+00,-3.318742570130531755e-01,-9.234862914120999244e-01,-6.417461057951912018e-01,0.000000000000000000e+00,-3.669644216211278565e-01,-9.234862914120999244e-01,-6.417461057951912018e-01,0.000000000000000000e+00,-3.669644216211278565e-01,-9.234862914120999244e-01,-6.417461057951912018e-01,0.000000000000000000e+00,-3.669644216211278565e-01,-9.234862914120999244e-01,-6.417461057951912018e-01,0.000000000000000000e+00,-3.669644216211278565e-01,-9.234862914120999244e-01,-6.417461057951912018e-01,0.000000000000000000e+00,-3.669644216211278565e-01,-9.234862914120999244e-01,-6.417461057951912018e-01,0.000000000000000000e+00,-3.669644216211278565e-01
-4.807171969432624259e-01,-6.417461057951912018e-01,0.000000000000000000e+00,-3.669644216211278565e-01,-9.235628051206877798e-01,1.473749001814667059e-02,0.000000000000000000e+00,-3.669644216211278565e-01,-9.235628051206877798e-01,-1.473749001814667059e-02,0.000000000000000000e+00,-3.669644216211278565e-01,-6.424325682126506010e-01,-4.531040249167341827e-01,0.000000000000000000e+00,-2.713487185635147791e-01,-7.238182022030008600e-01,-5.132355007652954493e-01,0.000000000000000000e+00,-3.051130946175857894e-01,-7.017405236673044389e-01,-4.625137084916474128e-01,0.000000000000000000e+00,-2.568266179456038523e-01,-9.235628051206877798e-01,-6.417461057951912018e-01,0.000000000000000000e+00,-1.334200664329911745e-01,-9.235628051206877798e-01,-6.417461057951912018e-01,0.000000000000000000e+00,-1.033380643052938391e-01,-9.235628051206877798e-01,-6.417461057951912018e-01,0.000000000000000000e+00,-1.302062908828428567e-01,-8.618867168288127933e-01,-5.820448748807269812e-01,0.000000000000000000e+00,-3.418104918522136271e-01,-8.572926779186643698e-01,-6.040241844109215386e-01,0.000000000000000000e+00,-3.192583411127261073e-01,-8.640555927639091971e-01,-5.917749457727475848e-01,0.000000000000000000e+00,-3.318742570130531755e-01,-9.235628051206877798e-01,-6.417461057951912018e-01,0.000000000000000000e+00,-3.669644216211278565e-01,-9.235628051206877798e-01,-6.417461057951912018e-01,0.000000000000000000e+00,-3.669644216211278565e-01,-9.235628051206877798e-01,-6.417461057951912018e-01,0.000000000000000000e+00,-3.669644216211278565e-01,-9.235628051206877798e-01,-6.417461057951912018e-01,0.000000000000000000e+00,-3.669644216211278565e-01,-9.235628051206877798e-01,-6.417461057951912018e-01,0.000000000000000000e+00,-3.669644216211278565e-01,-9.235628051206877798e-01,-6.417461057951912018e-01,0.000000000000000000e+00,-3.669644216211278565e-01
